419 300
president -0.15418 -0.032044 0.5261 0.01563 -0.3859 -0.22674 -2.3457 0.59748 0.19081 -0.25271 -0.20738 0.138 -0.2771 -0.26514 0.56344 -0.013534 0.39913 -0.24928 0.29346 -0.25693 0.22467 -0.13438 0.031863 0.49299 0.41588 0.11248 -0.29334 -0.27528 0.28692 0.46086 -0.5395 -0.050962 -0.21753 0.36847 -0.06812 -0.1494 0.13151 0.4572 0.090344 0.18669 0.34993 0.36105 0.79354 -0.13672 -0.11865 0.16949 0.3733 0.5243 -0.40364 0.35885 -0.063464 0.096593 -0.24263 -0.10811 0.54749 -0.28257 -0.19638 0.13942 0.043201 0.24262 -0.16776 0.018926 0.17274 -0.55404 -0.41619 0.1489 0.1603 0.73908 -0.31566 -0.32705 -0.46464 -0.083378 -0.10622 -0.36167 0.42351 0.087041 0.36302 -0.16311 -0.0039388 -0.41215 0.048217 -1.7835 -0.41925 -0.59772 0.40885 -0.16179 0.043244 -0.22895 -0.40294 0.35377 0.42997 0.79826 -0.50129 0.019022 -0.055626 -0.77724 -2.0167 0.12497 0.58723 -0.036418 0.12335 0.44661 0.035064 -0.41243 -0.042539 -0.2156 -0.011155 -0.47669 0.67066 0.074088 -0.49399 0.22675 -0.23042 -0.4428 -0.20136 0.35236 -0.14373 0.28322 -0.19646 -6.2427E-4 -0.50571 -0.51229 0.081497 -0.20237 -0.82207 0.019441 0.031748 -0.12843 -0.3305 0.66055 -0.15323 -0.62113 -0.33436 0.68308 0.054818 0.87634 0.049886 1.0664 0.022612 -0.35035 0.25326 -0.017109 0.19261 0.51777 0.088148 -0.41198 0.16517 0.14446 0.22352 -0.19349 0.060105 0.61276 -0.19225 -0.079601 -1.0738 0.20661 0.25445 -0.1608 0.13523 0.48332 -0.6423 0.18318 -0.27087 0.052414 -0.046818 -0.03419 -0.09698 0.5358 0.031126 -0.76372 0.36184 -0.04322 -0.13599 0.16161 -0.24333 0.19401 -0.17843 -0.47576 0.7863 0.68871 -0.18262 -0.43129 0.44382 0.14142 -0.2171 -0.11943 -0.13767 -0.054295 0.5519 -0.52668 -0.52212 -0.12646 0.68153 0.19005 0.4447 -0.4556 -0.71856 0.31481 0.17964 -0.013318 0.059629 -0.29764 -0.044439 -0.23134 -0.26316 0.29301 0.092877 0.37894 -0.014042 0.35717 0.47652 0.69923 -0.37249 0.24437 -0.18263 0.21232 -0.44252 0.054942 -0.034161 -0.5253 -0.45359 0.077909 -0.28231 0.25454 -2.94 0.18821 -0.35471 1.0231 -0.024032 -0.18192 -0.40325 -0.010342 0.2227 -0.22471 0.075834 -0.29753 -0.35856 0.074116 -0.15883 0.22821 -0.39657 0.29504 -0.24985 0.57143 0.29813 0.14353 0.054562 0.11529 0.242 -0.19466 0.37695 -0.18333 -0.73163 -0.37269 -0.88723 -0.23198 -0.56333 -0.11345 0.18004 0.049321 0.1233 -0.042201 0.15808 0.34141 -0.60155 0.16733 0.20769 0.41367 0.43681 -0.0040944 0.7233 -0.16187 -0.26582 0.012006 0.13113 -0.24316 -0.0096947 -0.62022 0.093792 -0.70412 -0.52961 0.47243 -0.075559 -0.06162 0.13618 -0.22891 -0.48183 -0.046029 -0.3362 0.27804 0.030573 0.022058 -0.015874 0.27276 0.36547 0.40241 0.2579 0.4346 0.71283 0.12651
monk 0.48071 -0.49755 -0.059377 -0.53363 0.20113 0.4665 -1.1011 -0.58107 0.42063 -0.10379 0.15368 -0.38449 -0.22471 -0.30111 0.55646 -0.27455 -0.087948 0.00334 -0.013887 -0.32114 -0.085358 0.28047 -0.12071 0.33494 0.38387 -0.035593 0.35026 -0.22156 -0.15714 0.024114 0.48744 -0.01014 0.0052999 0.2152 0.07802 -0.11794 0.13784 0.31335 -0.37649 0.16984 0.12974 -0.10174 -0.50132 0.1213 -0.61452 -0.065218 0.31828 0.35766 0.0037027 0.20562 0.5415 -0.19809 -0.020075 0.14508 0.202 -0.16814 -0.50316 -0.37708 0.21735 -0.31315 0.020515 -0.8768 0.67956 -0.094795 -0.15867 0.61546 -0.061192 0.038375 -0.54339 -0.3182 0.0032725 0.15155 0.23434 -0.49642 -0.085918 0.14582 -0.17229 -0.47214 -0.28761 -0.27797 -0.012331 -0.58099 0.91243 0.1107 0.078441 -0.47173 0.23612 -0.61527 0.27144 -0.071172 -0.23061 -0.71187 -0.66553 -0.098644 -0.17537 -0.14886 -0.51909 -0.19054 0.4449 -0.25798 0.051094 0.13454 0.051846 -0.5119 0.15855 0.40912 0.27059 0.16684 -1.0007 0.53072 0.12449 -0.10089 0.09299 -0.74906 1.0094 0.066774 0.022541 0.10925 -0.14474 -0.45045 0.47319 0.68342 0.14821 0.20004 0.011143 -0.0042564 -0.35845 -0.23958 -0.48991 0.13307 -0.095014 0.2508 0.39358 0.25635 -0.15142 0.39919 0.022746 -0.0043596 -0.52044 0.70695 0.23553 -0.10065 1.0155 -0.17586 -0.82959 -0.053588 -0.26902 -0.1764 0.78463 -0.16411 0.022026 -0.41831 0.18901 -0.95115 -0.033458 0.56184 0.20633 0.5593 0.62455 -0.19042 -0.39338 0.42844 -0.14118 0.33187 -0.17988 0.10545 0.45647 -0.37163 0.0031069 -0.25164 0.20029 0.45639 0.51109 -0.15982 -0.26817 -0.32343 0.066498 -0.56275 -0.39315 -0.53882 0.068809 0.62288 -0.11382 -0.41571 -0.40585 -0.21041 -0.62849 0.14045 -0.67726 -0.068311 0.14326 -0.2936 0.40176 0.2735 0.13236 -0.45298 0.076761 -0.22629 0.091459 -0.35806 -0.52176 -0.29533 0.21694 -0.22433 0.15704 0.19646 0.26946 0.29415 -0.15555 0.059305 -0.29854 -0.29802 0.39364 -0.39137 -0.39433 0.045287 -0.13124 0.5673 0.025836 0.34594 -0.2423 0.28592 0.56771 0.70313 -1.7659 -0.61935 -0.3108 -0.5111 0.16517 -0.055472 -0.23694 0.46401 0.091318 0.43786 -0.29811 -0.0223 0.40667 -0.029366 -0.41874 0.17617 0.48501 0.56231 -0.56793 0.45443 -0.097214 0.24023 -0.15291 0.3864 -0.1032 0.78957 -0.094846 -0.084156 -0.17515 0.13905 0.0083155 -0.11841 -0.16265 0.17592 0.016555 -0.56275 0.42494 -0.229 -0.15964 0.83031 -0.079522 0.72009 0.14995 -0.41462 0.12439 0.13466 0.099529 -0.24667 -0.12271 0.075698 -0.41843 -0.27663 -0.21879 0.23498 -0.031434 -0.4205 1.0558 0.48529 0.018314 -0.083239 0.20446 0.052274 0.34693 0.040929 0.38261 0.086025 0.026334 -0.088608 0.07735 -0.22175 -0.065938 0.11231 -0.050052 -0.65257 0.54559 0.50056
chance -0.1156 0.46492 0.044361 0.12361 -0.1735 0.36804 -3.4812 0.026815 0.072833 -0.13092 -0.63368 0.14663 0.12093 -0.19952 -9.3689E-5 0.25897 0.11994 0.011436 -0.037597 -0.22699 0.55271 -0.080118 -0.038129 -0.11934 0.51663 0.3333 -0.10241 0.71263 0.012182 0.33461 -0.39985 0.17125 0.064032 0.11222 -0.029036 -0.16429 0.04879 0.058856 -0.33493 -0.13087 0.31127 0.29653 -0.36284 -0.10099 -0.12797 -0.34342 -0.11425 0.097153 0.15734 0.16439 -0.068526 0.15109 0.15123 0.15193 -0.076778 -0.21537 0.25069 -0.58133 0.24553 -0.15743 -0.35798 -0.087614 0.41372 -0.22053 -0.032379 0.28279 -0.20067 -0.28058 0.13507 -0.27171 -0.014447 -0.33116 -0.068701 -0.016028 0.16117 -0.16053 0.1747 0.10185 -0.33797 0.067934 -0.37888 -0.32328 -0.028705 0.24805 -0.24683 0.001692 0.15652 -0.11059 0.25869 -0.11077 0.30422 0.01812 0.22153 0.1601 -0.45927 -0.42971 -1.3633 0.019694 0.20686 0.12268 -0.47707 -0.021003 0.19068 0.29038 -0.1017 -0.1088 0.16073 -0.29339 -0.11132 -0.63045 0.18781 -0.35595 -0.27308 0.39266 -0.35679 0.074747 -0.63926 -0.013929 0.070276 0.077478 -0.33437 -0.42266 0.18557 -0.23255 0.042541 0.1314 0.044373 0.23156 -0.22515 -0.079148 -0.080513 0.2639 0.19903 -0.22123 0.26999 -0.32551 -0.30828 -0.21716 0.014551 0.65748 -0.041467 -0.13994 0.30504 -0.22323 -0.5674 -0.083448 0.010541 0.32391 -0.34885 0.20508 0.016759 0.38571 0.45345 0.048812 0.2528 0.68138 0.067277 -0.2977 -0.19088 -0.41653 0.17806 -0.25799 0.27028 0.17821 -0.30953 0.19634 0.46147 0.13669 0.25168 -0.14568 -0.21384 0.34201 -0.064157 -0.44245 -0.14607 0.018088 0.078059 -0.0037606 -0.31469 0.29175 0.10276 -0.079645 -0.026505 -0.33888 -0.27411 0.087155 -0.4069 0.10901 0.23623 -0.19776 0.18729 0.011074 -0.10935 0.09469 -0.10725 -0.64704 -0.22143 -0.3418 0.19504 0.36938 -0.13864 0.41814 -0.60236 -0.076112 -0.10857 -0.0077654 -0.24201 0.066105 0.081956 -0.067962 -0.19279 -0.21931 -0.065356 0.051842 -0.094459 -0.21175 -0.34484 0.034358 -0.43077 -0.045991 -0.21219 0.26453 -0.31185 0.019658 -2.3854 -0.038519 -0.062887 0.45281 -0.097002 -0.034355 0.18141 -0.26975 -0.18961 -0.061602 0.10179 -0.15468 -0.0076803 -0.34305 0.23636 -0.045174 -0.26891 -0.35964 -0.56567 0.67258 -0.025178 -0.033196 -0.18087 0.33617 -0.19858 0.15213 -0.17639 -0.17227 -0.26253 -0.16758 0.05816 0.261 0.2055 -0.33053 -0.12081 0.12479 0.077547 -0.061915 0.16766 -0.29253 0.0082615 0.037274 -0.31087 0.39693 0.94829 0.24115 0.17461 -0.05147 -0.045926 -0.11455 -0.0036348 0.26556 -0.13308 0.37608 0.021437 -0.04934 0.53341 0.022489 -0.063563 0.097257 0.01427 0.44085 0.054577 0.23197 -0.13863 -0.24684 -0.32446 -0.23879 0.014128 -0.0018677 -0.056306 -0.061924 0.0873 -0.27875 -0.14692 0.2496
party -0.74395 -0.075972 0.36398 0.41491 0.64197 0.19891 -2.3893 0.13418 0.011355 -0.58789 0.066847 -0.19873 -0.42728 0.09159 0.075873 -0.16898 -0.066803 0.36578 0.47499 -0.18105 0.10242 -0.38889 -0.58876 0.39125 0.40032 -0.79486 0.060138 0.69683 0.3031 0.40572 -0.68556 -0.24021 0.42036 0.26831 -0.52173 0.11816 0.13161 -0.50138 -0.11643 0.074491 0.36764 0.35612 0.30107 0.15912 0.32237 -0.35468 0.32057 0.60834 -0.50105 0.38362 0.0074754 0.11584 -0.15116 0.40183 -0.80643 0.3254 -0.45632 -0.10729 0.43887 0.3013 -0.0017405 -0.27163 0.2871 -0.51972 0.26242 0.14456 0.19766 0.11379 0.19439 0.20885 -0.068045 0.25052 0.40648 0.26474 0.36866 -0.64324 0.50334 0.1754 0.23065 0.26441 0.1743 -1.0625 -0.11642 0.11129 -0.58213 -0.31278 0.95291 -0.047859 -0.1752 -0.24753 0.091827 0.40918 0.14676 0.16215 -0.34711 -0.85491 -2.447 -0.58265 -0.3092 -0.68218 0.23354 -0.12344 -0.31298 -0.1169 -0.20188 -0.28431 -0.033308 0.31136 -0.28186 0.57439 -0.15229 0.044328 0.36454 -0.0748 -0.017915 -0.14515 -0.012734 0.09619 -0.32246 0.35314 -0.18229 0.04514 0.23196 -0.42273 -0.49774 0.27273 0.69846 0.35442 -0.2467 0.26304 -0.2822 -0.14747 -0.33495 0.10195 0.12424 0.42487 -0.86641 -0.43278 0.5336 0.48657 0.10009 0.53045 -0.18676 0.43004 -0.30785 -0.53218 -0.2884 0.41256 -0.081311 0.64087 0.048624 0.10564 0.53362 0.25738 -0.061989 -0.34257 0.48115 0.34448 0.023865 0.12254 -0.62457 -0.1626 -0.0083102 -0.49896 -0.32958 -0.22436 -0.14221 0.11299 -0.74458 -0.48335 0.89779 -0.2583 0.24866 0.454 0.31816 0.30046 0.13372 -0.092622 -0.0074121 -0.08233 0.048743 -0.26347 0.30384 -0.40935 -0.21682 -0.16457 0.41737 0.15699 0.49857 0.11837 -0.23839 -0.032069 -0.76406 0.26159 0.33367 0.33303 0.1584 0.13192 0.10789 0.0070827 -0.11122 -0.39732 -0.18533 -0.85947 0.18699 0.2299 0.29234 -0.42583 0.47178 0.22387 0.14077 -0.15197 0.2541 0.41796 0.017929 0.2228 -0.19091 -0.20189 0.5105 -0.30539 0.34246 -0.062693 -0.15686 -0.12691 -3.262 -0.058885 0.16381 0.9671 0.07046 -0.63352 0.60431 0.083704 -0.14015 0.13816 -0.21777 -0.20955 -0.10172 -0.27376 0.46695 0.1687 -0.58222 -0.53141 0.50676 1.0229 -0.047714 0.0052367 0.32621 0.36584 0.34464 -0.50874 -0.84837 -0.57565 0.1536 -0.54362 0.25616 -0.1109 -0.0098069 0.30341 -0.52636 -0.53411 -0.087529 0.16374 0.51044 -0.33079 0.19819 0.62822 0.083285 -0.27556 0.06085 -0.0011078 0.022141 0.0094011 -0.30798 -0.1158 0.30429 -0.46854 -0.52426 -0.48031 -0.011564 0.32641 0.082424 -0.51008 -0.46541 -0.024576 -0.54603 0.11312 0.23787 -0.047355 -0.19653 -0.048439 0.07788 0.31044 0.053977 -0.38719 -0.40637 0.52646 0.0084725 -0.095031 0.086512 0.26157
fuck -0.58161 0.35702 0.2229 0.33773 -0.24065 0.2509 -2.3892 -0.32066 0.24024 -1.4279 0.80484 0.15164 0.71694 -0.65199 -0.41506 -0.18598 -0.21822 -0.44067 -0.56922 0.37321 0.43405 -0.70825 0.1129 0.40556 -0.11647 0.86193 0.32133 -0.055326 0.1797 -0.029792 -0.019894 0.49284 0.3125 0.3307 -0.43839 0.60895 -0.054914 0.51462 -0.68465 0.026128 0.163 0.085734 -0.36536 0.053684 0.37562 0.070861 0.0023958 0.14469 -0.0072572 0.76899 0.077424 -0.15946 -0.051991 -0.25096 -0.10337 0.35227 -0.67115 0.21299 0.37791 0.1684 0.2475 -0.51053 0.58974 -0.32181 0.57446 0.49153 0.26855 -0.42841 0.38433 -0.21696 0.47994 0.36111 -0.13468 0.17651 -0.038169 0.0040027 0.24128 -0.097484 0.25719 0.26458 0.42144 0.30662 -0.017867 -0.36915 0.2166 -0.091069 0.23562 0.12223 -0.024069 -0.1185 0.56323 0.5707 -0.076755 -0.35964 0.11682 0.24195 -0.56859 0.51305 -0.024274 0.50994 -0.60729 0.37434 -0.70161 -0.64891 -0.65335 0.38816 -0.074764 -0.80012 0.042808 0.2133 -0.8613 0.11962 -0.37127 -0.12272 -0.12675 0.48478 0.28562 -0.054719 0.21065 0.081333 -0.24437 -0.2103 0.44278 0.5082 0.35187 -0.35577 0.34637 0.0035111 0.13877 -0.47395 -0.76267 0.28486 -0.20416 0.32883 -0.17006 -0.70751 0.015175 0.028731 -0.68945 1.1934 0.13348 0.31691 -0.20605 0.59403 -0.11062 -0.051323 -0.67807 0.16598 0.16255 -0.099184 0.1199 -0.04909 0.46145 -0.10071 -0.22654 -0.8922 -0.23278 0.0094342 0.32846 0.52125 -0.23703 -0.0033195 -0.92449 -0.16985 0.1107 -0.24982 -0.78208 0.3293 0.018869 -0.003194 0.22919 0.29421 -0.20712 -0.1611 0.46941 -0.59048 -0.28802 -0.089201 0.10868 -0.59458 -0.024155 0.34809 -0.043023 -0.066561 0.15868 0.2674 -0.034145 -0.054564 0.52634 0.22704 0.53192 -0.32077 -0.34821 0.0081927 -0.11879 -0.19789 0.27539 -0.036178 0.60932 -0.14817 -0.63835 -0.21342 -0.58997 -0.13434 -0.18369 -0.16953 -0.44549 -0.72234 0.2277 0.061977 -0.14131 -0.61156 -0.36436 0.049837 0.42059 -0.16192 0.20764 0.14227 -0.38581 -0.21981 0.32767 -0.46284 -0.77307 0.01286 -2.6717 -0.43852 -0.44955 0.19222 0.0021823 -0.3937 -0.060758 0.55388 0.14383 -0.071457 -0.60113 -0.64309 -0.61224 0.11648 0.35103 0.80874 -0.083387 -0.10956 0.23526 0.97429 -0.29156 -0.11938 0.38784 0.31579 0.31191 -0.39019 -0.2108 0.011804 0.60013 0.1695 0.54586 -0.45597 -0.015151 0.095789 -0.14625 -0.33757 -0.23223 -0.3077 -0.36898 -0.68475 -0.168 0.22036 -0.15766 0.46906 -0.031916 -0.38446 -0.039519 0.20482 -0.36519 0.3372 -0.16264 0.0059187 0.4382 -0.19138 0.53162 0.26583 1.1295 0.29331 0.083498 -0.18754 -0.23584 -0.83046 -0.24097 0.10346 -0.13742 -0.26223 -0.069799 -0.20032 0.11735 0.24432 -0.21675 0.053883 -0.0063654 -0.050884 0.29234 0.47303
psychology 0.02173 0.54025 0.15644 0.23435 -0.55956 0.058849 -1.8921 -0.015862 -0.22472 0.40017 0.31941 -0.17598 -0.70046 -0.33674 -0.17957 -0.14881 0.57904 0.2502 0.10351 -0.34469 -0.21925 -0.57256 0.034726 0.030909 -0.29549 -0.11581 -0.28519 -0.18805 -0.79047 0.15922 0.15827 -0.64683 -0.28277 0.28307 0.23791 0.23448 0.0035967 -0.11002 0.12964 -0.027849 -0.30644 -0.74112 0.041358 0.25281 0.22727 -0.44219 0.056699 0.73898 -0.19444 0.33946 0.14103 0.31955 0.11245 -0.14625 -0.26984 -0.24841 0.26846 0.17475 -0.015135 0.42562 -0.24598 -0.14843 0.44373 -0.18084 -0.26861 1.3697 -0.18254 -0.54575 -0.2224 0.35646 -0.076081 -0.24626 -0.27695 -0.6145 -0.32273 -0.14948 0.27493 -0.85103 0.45518 -0.049963 0.49686 -1.4123 -0.036725 -0.20605 -0.060449 -0.21451 -0.27149 -0.16062 0.70096 0.045537 -0.064084 -0.057318 0.11705 0.086353 -0.19955 0.56892 -2.7843 0.35673 -0.8839 0.4 -0.047373 -0.38688 0.13419 -0.31897 -0.012427 -0.36685 0.22986 -0.52068 0.43502 -0.069858 0.070164 0.55656 0.39263 -0.068409 0.069769 0.64453 -0.40283 0.26662 0.06894 -0.5972 -0.64128 0.15963 -0.18048 -0.02497 0.34482 0.078394 -0.25699 0.12934 -0.33978 0.1127 0.37735 0.27828 0.49228 0.33533 -0.041936 -0.28244 0.93052 -0.088937 -0.3864 -0.055284 -0.59339 0.17047 -0.10308 0.14262 -0.013046 0.22119 -0.18271 -0.22299 -0.010268 0.50873 -0.24688 -0.35431 -0.36153 0.065585 0.02972 0.64723 0.29403 0.16701 0.19956 0.072443 0.095239 0.10404 -0.19608 0.26358 -0.096358 0.05954 -0.10054 -0.12574 0.44295 0.41999 -0.37927 0.030322 -0.22563 -0.34206 -0.25556 -0.11226 -0.37273 -0.24249 -0.71645 0.29402 -0.7588 0.60119 -0.16496 0.48096 -0.25608 0.25986 0.31552 -0.61422 -0.37366 0.29033 -0.053717 -0.23023 -0.12845 -0.91651 -0.11306 -0.15734 -0.6235 0.19218 -0.031234 -0.33739 0.68566 0.12477 -0.044173 0.061512 0.24656 0.13032 0.3175 0.026225 -0.42659 0.14568 -0.040591 -1.0108 -0.049271 -1.0501 -0.44819 -0.12082 0.067766 -0.18059 -0.28773 0.52772 -0.22745 -0.57677 0.17844 -0.2301 -0.93599 -0.35799 -0.13854 -0.09942 0.16665 0.41879 -0.41816 0.16001 0.46412 -0.14018 0.22994 -0.48 0.66602 0.25059 -0.19238 -0.022156 -0.1672 0.67835 -0.319 0.36226 -0.14935 0.66434 0.53462 0.023752 0.78503 0.11521 -0.41433 0.407 -0.23845 0.69061 -0.18041 -0.19342 0.41777 -0.26255 0.56725 -0.1195 -0.019486 0.5759 -0.2348 0.27033 0.16146 -0.65142 0.054141 0.11252 0.0033768 -0.068666 -0.38456 0.6229 -0.43322 0.35898 -0.15178 0.056966 -0.25894 -0.10678 -0.09837 0.21033 -0.57549 -0.35378 -0.33702 -0.23958 -0.36737 0.21816 -0.12497 -0.39494 -0.34763 -0.038895 0.46349 -0.26204 0.040626 0.17652 0.12516 0.63107 -0.64754 0.31438 0.30278 -0.24737
government -0.093704 0.17764 0.058625 -0.038177 -0.44688 -0.057523 -3.3195 0.69851 0.39345 0.71754 -0.18304 0.43233 -0.47175 -0.73949 0.24791 0.39767 0.28094 0.22211 0.040452 0.020574 0.54673 -0.046594 0.086292 0.22543 -0.05175 0.050211 -0.22257 -0.47388 0.17952 -0.098319 -0.66972 -0.31191 0.5175 0.3387 -0.033639 0.31471 -0.07569 -0.048317 0.1617 -0.11062 0.14204 0.34075 0.15434 0.75634 -0.52059 0.51801 0.22122 0.44196 0.04096 -0.27339 0.06056 0.10327 -0.22464 0.11454 0.2989 -0.028625 -0.18428 0.044889 -0.31598 0.59492 0.2735 0.037532 -0.15472 0.081942 0.18444 0.37491 0.016009 0.33959 -0.088252 -0.27353 0.32574 0.093051 0.10225 0.22945 0.29906 0.0067043 0.12837 -0.2877 0.10937 0.44389 0.0074463 -1.4412 -0.24556 -0.85395 -0.27342 0.10942 0.26375 -0.55874 -0.0011611 -0.073197 -0.10066 0.61688 -0.21807 0.34609 0.67763 -0.68074 -3.0622 0.3821 -0.18259 0.059468 0.086205 0.8773 -0.144 0.16173 -0.32089 -0.32699 0.34854 0.080736 0.13397 -0.081259 -0.45977 -0.21486 0.27216 -0.54423 -0.048396 -0.90611 -0.25833 0.50752 -0.27857 0.14773 0.053136 -0.65901 -0.13115 -0.26534 -0.34017 -0.0075185 0.18932 -0.2032 -0.15535 0.64829 0.58424 -0.26615 -0.10976 0.48465 0.016445 0.11526 -0.03171 0.34244 -0.017899 -0.57476 0.091525 0.16318 -0.40004 0.18178 0.35227 0.11293 -0.34309 0.37917 0.26103 0.053176 -0.11542 0.75347 0.29805 0.15013 -0.4258 -0.11499 0.15098 -0.275 0.075298 0.53255 -0.49174 -0.08537 -0.14634 -0.1274 0.42558 -0.31866 0.28642 -0.0071084 0.24961 -0.37197 0.096958 0.14363 -0.30634 0.39617 0.48875 0.095156 -0.07855 0.2828 0.68419 0.17647 -0.064471 0.33386 0.12097 0.075176 -0.69097 -0.40002 -0.08196 -0.38178 0.25981 -0.51158 0.34676 -0.48803 0.067555 -0.41305 0.1131 0.19304 0.31135 0.31036 0.015709 -0.22754 -0.39358 -0.10814 0.17262 -0.50846 0.16172 0.38068 0.3014 0.50814 -0.18916 0.15548 -0.013591 0.36137 0.28705 0.012219 -0.022099 0.026532 0.058016 -0.060958 -0.2845 -0.41369 -0.47769 0.093109 0.0078239 -0.11656 -2.0165 0.6568 0.17383 0.76349 0.22445 -0.86319 0.2045 0.50954 0.10996 0.16069 0.19688 -0.24062 0.1081 -0.6183 -0.15449 0.023666 0.10421 -0.2091 -0.1153 0.44622 0.28218 0.49981 0.19565 -0.32317 0.38043 -0.12171 -0.50028 -0.76111 0.26001 -0.26138 -0.29438 0.18846 -0.36436 -0.13812 -0.16027 -0.11453 0.29741 0.067673 0.33949 -0.094679 -0.15223 0.15205 -0.036704 0.17202 -0.058467 0.18239 0.42685 -0.067776 0.0013788 -0.53093 -0.21388 -0.39732 0.44516 -0.62553 -0.0030511 0.053728 -0.30706 0.17173 0.27423 0.053636 0.22047 -0.21445 0.25191 0.062208 0.14478 -0.094749 -0.15204 -0.12325 -0.24168 -0.57602 -0.44249 0.034711 0.20019 -0.31248 0.35697 0.33616
madhouse 0.013367 -0.13284 0.023405 -0.33156 0.12892 0.22473 0.20208 0.49707 0.43323 -0.40822 0.33972 0.080705 -0.069237 0.34852 -0.045253 0.35128 -0.18853 -0.2624 0.020393 -0.58711 -0.35026 -0.47993 -0.047111 -0.093972 -0.46074 0.1383 -0.30256 0.57695 0.08796 0.41008 -0.20877 0.30816 0.19367 0.39928 -0.33703 0.031428 0.055701 -0.43686 0.047052 -0.58675 0.030322 -0.11793 -0.49387 0.13886 0.026394 -0.01045 0.51729 -1.0474 -0.31519 -0.50703 0.10077 0.21255 -0.086163 -0.39862 0.38838 -0.32581 -0.10007 -0.19828 0.16596 0.1379 -0.064303 -0.63365 0.2429 -0.49098 0.20732 0.021476 -0.15514 0.014271 0.24367 0.16137 0.1111 0.05907 0.10595 0.069901 -0.21206 -0.56853 0.59558 -0.70053 0.26451 0.34004 0.13927 -0.42527 -0.57524 -0.36709 -0.022406 0.62524 -0.084391 -0.42042 -0.1352 0.21862 -0.14074 0.44684 0.0034077 -0.054713 0.06541 -0.40568 0.25079 -0.41689 0.10929 -0.336 -0.034185 0.35984 -0.48224 0.24554 0.17643 -0.43733 -0.11076 -0.032236 0.040374 0.03118 0.12301 -0.49674 -0.15386 0.21749 -0.31567 0.23727 0.66017 0.30463 0.21153 -0.092024 0.29276 0.47018 -0.5414 0.37131 0.24298 0.46421 -0.050379 -7.7406E-4 -0.56729 -0.3414 -0.58695 0.37877 0.13112 0.38485 0.11653 0.043297 0.46511 -0.13005 0.13757 0.57922 0.017646 0.13424 -0.24654 0.36125 -0.74263 -0.13423 0.36585 -0.14115 0.45953 0.0084117 -0.42265 -0.080204 0.52433 -0.18279 0.1545 -0.24195 -0.53515 -0.10726 0.42328 -0.15668 0.11713 0.063132 -0.2114 -0.10439 -0.093815 0.091873 0.47231 -0.14492 0.35978 -0.36254 0.7431 0.15557 0.55605 0.30173 0.32237 -0.19626 -0.63635 0.50381 -0.27041 -0.5141 0.16427 -0.023803 -0.63701 0.062335 0.6082 -0.90835 -0.18328 -0.78959 0.11183 -0.11507 0.081694 0.50101 0.36912 0.30705 0.056416 0.19495 -0.0036914 0.7461 0.32006 -0.0079084 0.22461 0.13442 0.020639 -0.013398 0.71862 -0.28449 0.14197 -0.62052 -0.45951 0.072966 0.15117 -0.11656 -0.15894 -0.20953 0.069914 0.11684 -0.051874 0.23292 -0.46491 0.076466 -0.35517 0.45997 -0.24257 0.17887 -0.32187 0.1063 -0.10729 0.23497 -0.50859 0.60747 0.40117 -0.060026 -0.02675 0.16784 -0.10489 0.63789 0.1749 0.10124 0.047435 0.27244 -0.46938 0.1249 -0.091106 0.55173 -0.53739 -0.14032 -1.0359 0.24597 -0.18793 -0.063195 -0.28529 0.15332 0.57528 0.1034 -0.31316 0.40777 -0.48092 -0.39547 0.45357 -0.21988 0.056301 0.32043 -0.24248 -0.094346 0.44869 0.32056 -0.19982 -0.29077 -0.48298 0.41795 -0.29822 0.38276 -0.49902 -0.32801 0.091884 -0.31604 -0.28983 0.19949 0.25684 -0.32867 -0.056193 0.062164 0.36903 0.73154 -0.10608 -0.032001 0.38706 0.25017 0.26728 -0.19711 0.41189 -0.0066569 -0.10804 0.36618 -0.13922 0.14393 0.24769 -0.25151 -0.14504 0.099336
video -0.46529 0.1063 -0.29215 0.048039 -0.020434 -0.30402 -2.776 0.46129 0.25512 -0.90368 0.44284 0.10216 0.17662 0.19249 -0.019225 -0.18168 -0.32853 -0.25787 0.30616 -0.026958 0.35282 0.22279 0.20399 -0.50764 -0.069552 -0.31651 0.1062 0.011094 -0.3175 0.41272 0.16903 0.63214 -0.48703 0.57402 -0.080127 0.14033 0.64271 0.14669 0.32055 0.49279 -0.24098 0.079853 -0.58529 0.13804 -0.036686 0.21534 -0.36987 0.026225 -0.23901 -0.052543 -0.15919 0.12828 -0.0075131 0.30548 -0.26251 0.37348 -0.4452 -0.4807 0.19628 -0.12997 0.12301 0.54135 0.74702 -0.19735 -0.040176 0.27307 -0.028133 -0.66964 0.08579 -0.25304 0.66792 0.46074 0.26301 0.044858 0.099101 -0.40522 -0.12869 0.31219 0.010697 -0.078818 0.26469 -0.55677 0.25541 0.096897 0.21476 -0.0013441 0.45941 -0.020495 0.65471 -0.2332 0.2223 0.25351 -0.32412 0.0079208 -0.39058 -0.080509 -2.5384 0.38049 0.48665 -0.52619 -0.011112 0.38719 0.035544 -0.47013 -0.036178 0.47567 -0.49204 0.20065 0.30237 0.029941 0.090353 0.014897 -0.17157 -0.021592 -0.27599 -0.15825 0.668 -0.35067 0.18951 0.13167 -0.5019 0.14687 0.61799 1.2268 0.60555 -0.04737 0.37426 0.10685 0.37032 -0.59827 -0.26311 -0.35621 -0.26187 0.33197 -0.27636 0.32901 -0.031796 0.24099 -0.0052752 1.8095 -0.0068836 -0.45749 -0.1452 -0.029559 -0.23773 -0.086878 -0.27503 -0.087787 -0.13696 -0.37913 0.23852 -0.54778 0.054051 -0.12457 0.34142 -0.44776 -0.38057 0.5203 0.32431 -0.50079 0.13687 -0.22303 -0.090751 0.19539 0.058986 0.41222 -0.82705 0.26562 -0.11837 -0.10911 0.26806 -0.1097 0.62225 -0.12996 0.4732 -0.17943 -0.18521 0.62775 -0.13309 0.093284 0.29068 0.081946 -0.051471 -0.10885 0.79358 -0.090786 0.52375 0.18468 -0.15663 0.63968 -0.093363 0.19733 0.1124 -0.19609 -0.55362 -0.46605 -0.12863 -0.042757 0.62366 0.11253 -0.72785 -0.43187 0.014868 0.62365 0.030046 0.26468 -0.32579 -0.0047236 0.49646 -0.12757 -0.35671 0.13772 -0.6378 -0.20369 0.22475 0.55578 -0.12685 -0.56437 -0.43474 0.061906 -0.52538 -0.018973 -0.82562 0.35749 -3.1456 -0.41979 0.2071 0.14542 -0.14356 -0.19727 0.17542 0.076548 0.42572 -0.1752 -0.17348 0.25711 -0.5997 -0.45449 0.052369 0.029057 0.066046 -0.34124 -0.24131 0.52816 0.039154 0.056219 0.35096 0.2161 0.18531 -0.075837 0.069118 -0.012203 -0.22752 0.19878 0.31713 0.08121 -0.32687 -0.61577 -0.31846 -0.37617 -0.43595 0.033089 -0.25062 0.32176 0.56401 -0.65385 -0.20325 0.13125 -0.64944 -0.29933 0.16063 0.17055 0.0074199 0.16346 0.13964 -0.53986 0.07916 -0.31254 0.25761 -0.03175 -0.55768 -0.72142 -0.40457 -0.54276 -0.19242 -0.7796 0.039548 -0.099413 -0.15113 0.32152 -0.29587 -0.29047 0.42891 0.028527 0.11814 -0.26187 -0.079948 0.19393 -0.25652 0.26225
defeating 0.21316 0.54695 0.22007 -0.30862 -0.57776 -0.071245 -1.4075 -0.13241 0.042844 0.58158 -0.11297 -0.21702 -0.033108 0.15878 -0.026311 -0.40185 -0.23508 -0.11162 -0.19611 0.111 1.1856 -0.30196 -0.4138 -0.1448 0.37138 0.16024 -0.062284 0.33327 -0.51589 -0.13899 -0.20616 0.32664 0.064738 -0.29882 0.094524 -0.39 -0.27934 0.30241 -0.30443 0.73734 0.089036 0.54658 0.5945 -0.25549 0.34674 -0.13425 0.44114 -0.30196 0.36442 0.38392 0.61531 -0.011541 0.051045 0.046639 -0.17514 -0.43708 -0.73339 -0.16165 0.2389 -0.14607 0.51635 0.6684 0.18181 -0.49073 0.36598 -0.065002 0.11919 0.13694 -0.19219 0.20015 -0.32977 0.2484 0.18611 -0.30197 0.47353 0.17308 -0.11302 0.21832 -0.096164 0.20037 0.31429 -0.78568 -0.0096026 -0.27011 -0.036419 0.12146 0.17254 0.024833 -0.14037 -0.030957 0.12645 -0.27564 0.33522 -0.31652 0.79028 0.15943 -0.82963 0.15233 0.11675 -0.11769 0.062176 -0.34582 0.047888 -0.085467 -0.2009 -0.38081 0.27531 -0.12046 0.0047495 -0.52068 -0.77978 0.34011 -0.57566 0.13552 -0.10928 -0.048685 0.097021 -0.26182 -0.39342 -0.36701 -0.65387 0.0011819 0.17316 0.21504 -0.38378 -0.14224 -0.25024 0.40344 0.60865 0.01654 0.12616 0.24214 -0.3293 0.53078 0.50054 0.29753 -0.22941 0.80479 0.069877 -0.15906 -0.19039 0.024905 0.22468 0.70073 -0.47704 0.16203 -0.14956 0.34084 -4.7299E-4 0.18762 0.0057717 0.014025 0.68585 0.36137 -0.28045 0.2573 0.70347 -0.52099 -0.25587 -0.47849 0.11115 -0.26308 0.39817 0.34562 -0.52496 0.22084 0.042903 -0.075903 0.60681 -0.28742 0.25118 0.06377 -0.12087 -0.46164 -0.209 -0.20698 0.18286 0.093694 0.084069 0.047823 -0.11522 -0.44895 -0.26892 -0.27948 0.33176 0.24683 -0.15569 -0.14678 -0.65313 0.033816 -0.030551 0.09772 -0.29115 -0.070794 0.24803 -0.2631 -0.38437 0.59548 -0.2405 0.22732 0.22752 0.18308 -0.29534 0.48368 -0.23997 -0.089983 0.015241 0.3491 -0.012217 -0.045144 0.024465 0.073593 -0.03979 0.17716 -0.29197 -0.61014 0.2356 0.20097 0.34121 -0.47218 -0.50095 0.51293 0.21072 -0.16369 -0.98215 -0.16999 0.2301 0.93587 -0.032536 -0.84502 0.21325 -0.29451 0.27483 -0.097018 -0.053927 -0.33137 0.041496 0.053619 -0.19628 0.060694 -0.020597 0.32832 -0.15469 0.46815 -0.32254 -0.040112 -0.36803 0.17818 -0.043366 0.83044 0.018123 -0.56489 -0.27126 -0.04241 0.045201 -0.30802 -0.097623 0.26027 -0.34494 0.47397 0.13575 -0.13433 0.41269 0.065713 -0.20676 0.26531 0.067066 0.4096 0.66963 0.17671 0.055824 -0.070988 0.18066 -0.35082 0.41107 0.096452 -0.15969 -0.081187 -0.25745 0.011909 0.65829 0.0037018 0.30871 0.432 -0.32397 -0.28943 0.5297 0.042567 0.37743 0.089853 0.45459 0.20834 0.17745 0.038331 -0.3594 0.66815 -0.32475 -0.13195 -0.22495 0.13329
death -0.18368 -0.15656 -0.10701 -0.012603 -0.91435 0.17891 -2.8331 0.62261 -0.31542 -0.1801 0.53126 0.13289 -0.5104 0.2292 0.068391 0.67198 0.12361 -0.21142 -0.17708 -0.17351 0.31339 0.39274 0.078553 0.079383 0.16964 0.27816 -0.16491 -0.65182 -0.26033 0.24702 0.2566 -0.29763 0.28901 0.2298 -0.07517 -0.040203 0.032417 0.06762 0.03228 -0.26283 0.17039 0.67782 -0.49334 -0.31071 -0.30833 0.015886 -0.024648 -0.7067 -0.6586 0.32617 0.36348 -0.01791 3.3534E-4 0.32308 -0.06889 -0.52331 -0.12187 0.40672 -0.43023 -0.29922 -0.27871 0.61637 0.55769 0.026115 -0.042048 0.011881 0.020138 -0.31122 -0.072892 0.78751 0.17354 0.17153 -0.022226 0.0095257 0.27478 0.61377 0.13448 -0.4616 -0.0035344 -0.058806 -0.20108 -1.4573 -0.28486 -0.30202 0.37134 0.7933 -0.1077 0.066705 0.31906 -0.34713 0.066766 0.018886 0.41794 0.29872 -0.17684 0.39791 -1.4868 -0.45829 0.48266 0.15542 -0.12407 0.046681 -0.027813 -0.32618 -0.91259 -0.26015 0.19157 -0.2873 -0.022227 -0.24682 0.3965 0.24575 0.080576 -0.20903 0.12438 0.087205 -0.055827 0.54107 0.034701 0.048249 -0.85884 -0.030771 -0.27213 0.07175 -0.37415 -0.12935 0.20825 -0.33324 -0.11304 -0.5094 -0.23456 -0.38429 -0.32721 -0.27708 0.5981 0.25843 0.34855 -8.5833E-4 -0.43083 0.573 0.05949 -0.18964 -0.072161 0.13536 0.024738 -0.14429 -0.50425 0.25518 0.69898 0.31784 -0.31963 -0.15801 0.41883 -0.21196 -0.18733 0.069075 0.20969 0.36757 -0.091756 0.4648 -0.057249 0.13249 -0.026338 0.22344 -0.0099306 -0.14855 -0.29824 0.023985 -0.23243 -0.16951 0.26003 0.44848 -0.33355 0.066639 -0.48092 -0.46129 0.25385 0.05442 -0.64193 -0.18774 -0.18069 0.085466 -0.20606 0.077525 0.31421 -0.24044 -0.25316 -0.27819 0.0069432 -0.13478 -0.29552 -0.34889 0.33702 0.043883 0.37808 -0.10547 0.023174 -0.38413 0.55782 0.2352 -0.17464 0.10693 -0.1147 -0.35582 -0.064186 -0.24835 -0.33286 0.08008 0.11736 0.047817 -0.23409 -0.015442 0.55172 0.30986 0.12152 -0.10002 0.34516 0.040812 0.40997 0.92615 0.098614 0.55461 0.12546 0.46759 -2.907 -0.092428 0.17108 -0.084729 0.10715 -0.60794 0.39206 0.57317 0.01181 0.63011 -0.1622 0.30881 0.047796 -0.21881 0.010259 -0.040422 -0.044578 0.3915 -0.66322 0.11703 -0.17541 0.066838 -0.39784 0.42853 -0.13111 0.56245 0.019145 -0.08074 -0.043104 -0.0569 -0.52586 -0.32517 -0.46466 0.23702 -0.26121 0.35178 0.24504 -0.14499 -0.48617 0.19509 -0.16842 0.55737 0.46252 -0.1815 0.18284 0.33141 -0.10457 0.29317 -0.11284 -0.026697 0.0077117 -0.28405 -0.40796 0.15041 0.10564 -0.19809 0.7346 0.0018023 0.38707 -0.24049 -0.33722 -0.025979 0.11738 0.058342 -0.25988 0.44848 0.20298 0.012105 -0.12235 -0.090957 -0.0058424 -0.09076 0.214 -0.14841 -0.85014 0.58454
image 0.064271 -0.073828 -0.70196 -0.014301 0.91585 -0.19724 -2.7057 0.88502 0.39479 -0.049463 -0.13299 -0.22542 -0.44585 0.008175 -0.02978 -0.23088 -0.51361 0.011269 -0.69039 -0.13482 -0.23653 -0.083633 0.2115 -0.25778 -0.21376 -0.81967 0.12637 0.47302 -0.15311 0.076962 0.053003 0.5203 -0.066721 -0.13978 0.049464 0.19195 0.039801 0.42285 0.49654 -0.048832 0.1649 0.14184 -0.27976 0.12508 0.1834 -0.08739 0.17216 -0.067912 0.37303 -0.34969 -0.14883 0.27342 -0.72844 0.27095 0.16366 0.34646 0.18581 -0.026882 0.26805 -0.20034 0.50991 0.15809 0.02532 0.23131 -0.53332 0.18609 0.27663 -0.20544 -0.46414 0.29341 0.23907 -0.25694 -0.071109 0.051115 0.03207 0.29554 0.50024 0.61717 0.61417 -0.31885 -0.026823 -0.59525 -0.27453 -0.14925 -0.027775 -0.079074 -0.31922 0.38748 -0.024481 0.62708 0.19615 -0.076249 -0.0067458 -0.062341 -0.63717 0.24553 -2.3606 0.60232 0.22904 -0.38883 -0.16278 0.5499 0.058335 0.15482 -0.15712 0.40892 -0.41297 0.12076 0.36422 -0.23904 0.053209 0.28374 0.28469 2.9353E-4 -0.25018 -0.38693 0.54996 -0.41731 -0.16985 -0.047375 -0.12848 0.29671 0.26553 0.53721 0.06299 0.043428 -0.063268 -0.25164 0.37692 -0.005618 0.085035 -0.1001 -0.019809 -0.11169 0.0025973 0.42558 -0.15638 0.053397 0.17476 0.24295 -0.16086 0.53078 0.4588 -0.57289 -0.44509 -0.2987 0.2083 0.69816 0.31602 0.8902 0.05506 0.14054 -0.1533 -0.80312 0.069161 -0.40107 -0.15397 0.36076 0.21186 -0.11231 0.18174 -0.29995 -0.34248 0.25288 -0.18161 -0.19088 -0.32972 0.16998 0.27297 0.64068 0.42643 -0.36865 0.18844 -0.87918 0.23408 0.36597 0.084775 -0.64431 0.1066 0.3194 -0.16534 0.56579 -0.62309 -0.12955 0.43434 -0.13807 1.2456 0.19231 -0.41993 0.44771 -0.38297 0.52165 0.055606 0.12921 -0.13597 -0.27612 0.066827 0.61826 0.057321 0.1645 -0.11274 0.35489 0.092517 0.48309 0.27987 -0.47667 -0.031371 0.66059 0.34744 -0.37575 0.34073 0.046531 0.12824 0.078595 0.10714 0.19315 0.2549 -0.32735 -0.21007 -0.15135 0.16884 0.051584 -0.26522 0.48875 -2.6816 -0.23107 0.53432 -0.50632 -0.237 0.14439 0.67036 0.0012032 0.18363 0.062298 0.091684 -0.15161 -0.57651 -0.15949 -0.041642 -0.15511 0.43755 0.56819 0.28258 -0.46419 0.073061 0.017001 0.35596 0.11986 -0.24962 -0.024172 0.032969 -0.11995 -0.075923 -0.18068 -0.29357 0.25805 -0.021213 0.02532 -0.16433 -0.30241 -0.019775 0.31478 0.10339 0.93672 0.062894 -0.75569 -0.22411 -0.24511 -0.1038 0.20401 -0.11586 -0.022168 -0.33884 1.0597 -0.14729 -0.10914 -0.13321 -0.056963 -0.35266 0.17465 0.39558 0.02039 0.40493 -0.29659 -0.27449 -0.54058 -0.11468 -0.14407 -0.33644 0.067247 -0.92644 0.42596 0.6162 0.38255 0.27075 0.45835 -0.011603 -0.30002 -0.030621 0.25841
theater 0.069059 -0.39479 -0.25833 0.0063069 -0.16213 -0.51026 -1.4564 -0.94938 0.33945 0.57102 0.18266 0.21646 0.34347 0.31305 -0.25829 0.23888 0.19398 0.58168 0.71579 0.114 -0.45969 -0.29947 -0.50851 -0.39588 -0.36369 -0.084291 -0.20125 -0.13505 -0.16713 -0.18628 -0.40028 0.093699 0.26813 0.46292 -0.10599 -0.50349 0.14583 0.077367 -0.11123 -0.28844 -0.28043 -0.35842 -0.54113 -0.18732 -0.37413 -0.01997 -0.0028115 0.34885 -0.20513 -0.26286 -0.53566 0.16433 -0.14137 -0.40511 0.78573 0.12728 0.39341 -0.58064 -0.75318 0.095932 -0.62619 -0.33383 0.42268 -0.51552 -0.025041 -0.71818 -0.82925 -0.37975 0.096872 -0.47542 -0.21775 0.28875 0.10538 0.18152 -0.50854 -0.38697 -0.055277 -0.456 0.14552 -0.4026 0.2507 -0.24722 -0.011088 0.64223 -0.073578 0.019587 0.33168 0.37773 0.49803 -0.33396 -0.24364 0.34446 -0.16223 -0.25968 0.24096 0.30749 -1.8597 -0.38128 0.12897 -0.49025 -0.61206 0.14357 -0.32362 -0.032474 -0.12731 -0.24168 -0.78468 -0.55632 0.27461 0.30711 0.67626 -0.028454 0.12978 0.0208 0.21826 0.27488 0.9246 -0.38949 0.14883 0.51164 -0.98175 0.23939 -0.16868 0.10614 -0.27534 0.28464 0.16251 -0.0026809 0.05647 0.013888 0.47596 -0.62227 0.10305 -0.57043 0.4783 0.091091 -0.36413 -0.39673 0.20625 0.32125 -0.10879 -0.045513 0.23944 0.018134 0.078666 0.57378 0.0036846 -0.23163 -0.3612 0.13534 -0.56309 0.22449 0.18106 0.031302 0.2562 -0.43012 0.17411 -0.74438 -0.16066 -0.77836 0.026693 -0.050454 0.064056 -0.044751 -0.58538 0.69393 -0.30167 -0.17423 -0.40552 -0.14452 0.66174 -0.055681 0.1664 -0.041451 0.69828 -0.54711 0.67934 -0.023337 -0.23542 -0.12717 -0.14517 0.53949 0.47445 0.2297 0.2593 -0.54848 0.45066 -0.32253 -0.5056 -0.08826 0.06473 0.11299 0.15241 -0.24981 0.24552 0.15043 -0.18679 -0.16378 -0.23135 -0.34236 -0.50319 -0.42588 -0.044931 -0.47034 0.16338 -0.14043 0.080689 0.159 0.36341 0.4131 0.26387 0.28464 -0.55015 -0.55809 0.15137 -0.13008 -0.1498 0.071538 0.009584 0.14859 0.21335 0.37738 -0.47814 -0.11993 -3.2489 -0.43128 0.14631 0.35059 -0.10606 -0.15552 -0.48605 -0.28835 -0.4884 0.047325 -0.44755 0.25557 0.34249 0.47674 -0.30672 0.31004 -0.46914 0.058178 -0.25977 0.42663 0.48259 -0.20918 -0.28249 0.030015 0.38392 -0.39638 -0.50492 1.1952 0.35741 0.31954 0.03747 0.35835 -0.94087 0.58061 0.46426 0.28491 0.33315 0.31035 -0.078231 0.22293 0.13362 -0.52391 -0.30739 0.33713 -0.16805 -0.13416 0.16973 0.58089 -0.41405 0.468 0.35724 -0.33846 -0.035904 -0.69552 -0.62942 0.0049581 -0.63135 -0.45943 0.53933 0.17228 0.15283 0.39793 0.4934 -0.20332 -0.21972 0.18684 -0.49029 -0.55696 0.20561 -0.10127 0.20514 -0.019602 -0.027409 -0.07092 -0.10149 0.32635
number 0.20044 -0.0069216 -0.31913 0.29559 0.43157 0.33579 -3.3194 0.957 -0.26195 0.032248 -0.084122 0.52628 -0.044921 0.42228 -0.28978 0.26051 0.036653 -0.68492 -0.14443 -0.28037 0.24707 0.026674 0.091683 -0.27781 0.35693 -0.2386 0.68603 -0.30396 -0.27268 -0.2785 -0.089784 0.26073 0.59568 -0.15688 -0.73548 -0.20712 -0.56124 -0.27677 -0.19054 -0.092924 -0.34648 -0.42083 -0.5677 0.30709 0.06413 0.18527 0.13207 -0.41805 -0.52972 -0.036174 -0.26898 -0.11296 0.023825 -0.061439 -0.39805 0.52171 0.57875 0.26952 -0.052736 0.63287 0.037845 -0.072134 0.35989 0.59336 -0.15677 -0.047906 -0.2286 0.074757 -0.020631 0.29181 -0.38223 -0.43254 0.25613 0.11537 0.56228 -0.38033 -0.11735 0.56103 0.13497 0.3355 -0.028972 -0.67311 0.045329 -0.38813 -0.24187 0.15888 -0.018952 0.014994 -0.10141 0.056864 0.55052 -0.57893 0.18299 -0.096247 0.16319 -0.038326 -2.4843 0.071277 -0.092468 -0.14619 0.28955 0.25354 0.025363 -0.10506 0.37326 0.20317 0.39346 0.2005 -0.14036 0.15296 -0.107 0.24838 -0.29037 0.10137 0.10357 -0.15654 -0.45304 0.35349 0.54229 -0.39247 0.60661 0.4565 -0.0088677 -0.31517 0.1837 -0.073439 -0.11168 -0.23901 0.36518 0.010301 -0.25099 0.26682 -0.41834 0.025533 -0.25765 0.13524 -0.3853 0.33817 -0.4236 0.29879 -0.037067 0.12083 -0.017406 -0.29344 -0.12222 0.011971 0.0072814 -0.35835 -0.5867 0.36027 0.14798 -0.047649 0.35311 0.0362 0.10259 0.14588 -0.048699 -0.21243 0.20901 0.075723 -0.39242 -0.042502 0.091488 -0.10411 0.011292 -0.38052 -0.21954 -0.59919 0.26324 0.44471 -0.293 -0.12606 -0.15395 -0.20067 0.10453 0.35091 0.13781 -0.2939 0.18774 5.4697E-4 0.29273 0.075994 -0.084323 0.21053 -0.17829 0.12785 -0.38796 0.015411 0.027592 0.17925 0.057467 0.44233 0.0079852 -0.1747 0.29111 -0.079593 -0.49145 0.052207 -0.18897 -0.65676 0.47703 0.41935 0.18865 -0.033839 0.044844 0.085133 -0.50123 -0.25931 0.10019 0.7014 0.23535 -0.031523 -0.12628 -0.095765 0.39271 0.16415 -0.38325 0.13037 0.11893 0.22422 -0.304 0.17046 0.3899 0.30175 -2.9182 0.30127 -0.011624 0.079614 -0.42448 -0.039121 0.10412 -0.12517 0.41083 -0.25747 -0.26652 -0.42193 0.2052 0.061761 -0.46457 -0.59657 -0.031968 -0.027949 -0.17351 -0.72025 0.012623 -0.38812 -0.25608 -0.20235 0.040642 -0.19203 -0.42058 -0.48461 0.3224 -0.36998 -0.66929 0.35436 -0.23208 -0.012387 0.069934 0.04684 -0.23586 -0.19321 -0.10965 0.52513 0.16882 0.355 -0.096777 -0.20907 0.29657 0.1146 0.37802 0.038916 0.074922 0.28372 0.31919 -0.028831 0.43175 0.33156 0.49134 -0.010972 0.051316 0.53159 -0.10277 0.26525 0.19867 0.40843 -0.085986 -0.47114 -0.0058525 0.49623 -0.16559 -0.40346 -0.21191 -0.0073747 -0.47224 -0.10328 0.073581 0.13333 -0.12813 -0.25668
astronomer -0.37978 -0.61438 -0.41913 -2.6534E-5 -0.52941 0.29974 -0.25531 -0.60854 -0.086054 5.8844E-4 -0.20004 -0.53596 -0.70818 -0.54735 -0.14708 -0.070666 0.62586 -0.62354 -0.43693 -0.24731 0.72781 0.40046 -0.6886 -0.042902 -0.019241 0.23641 -0.22069 0.29783 0.3445 -0.51788 0.43544 -0.17023 0.39924 -0.33909 -0.033013 -0.58909 -0.11705 0.41444 0.31971 0.040688 0.18976 -0.13914 -0.18843 0.15558 -0.20741 -0.40085 0.3139 0.55139 0.54956 -0.25461 -0.088369 0.29985 0.61337 -0.38106 0.062558 0.20471 0.51248 -0.31692 -0.87886 -0.30439 0.63789 0.19672 0.27831 -0.21827 0.65037 0.41555 -0.096253 0.93656 0.39458 0.0030787 -0.25872 0.18863 0.19536 -0.0030522 -0.048365 0.21258 0.43778 -0.28665 -0.03191 -0.49822 -0.7508 -1.1404 0.38327 0.88927 -0.022708 -0.21216 0.058558 -0.83928 -0.017636 0.40848 0.16227 0.057109 0.26424 -0.33152 -0.080094 -0.72782 -0.28077 0.82704 0.36856 0.53688 0.074297 0.25451 0.86277 -0.63868 0.46359 0.28209 0.95333 -0.70469 -0.085501 0.074665 -0.23173 0.38646 -0.46327 -0.10659 -0.11206 0.99637 0.33643 -0.66129 0.017938 0.13791 -0.068009 0.74373 0.27737 -0.11644 0.22746 -0.51109 0.22625 -0.28745 -0.42322 0.32981 0.36671 0.30306 -0.47531 -0.4569 -0.81117 -0.26695 -0.31024 -0.13914 0.58621 -0.1121 -0.19143 0.43754 0.14727 -0.35115 -0.45019 -0.42435 -0.30923 -0.16622 0.81423 0.8511 -0.028388 0.05779 -0.28988 0.27382 0.14161 0.2144 0.14121 0.3666 0.45367 -0.28325 -0.21753 0.3546 0.10836 -0.25408 -0.22688 0.072107 -0.44053 -0.056942 0.65422 -0.28212 0.16361 -0.0084835 0.013073 0.047111 -0.44543 -0.33402 0.35004 -0.1452 -0.10194 0.65878 -0.57497 -0.062245 0.21511 -0.12318 -0.21582 -0.56332 0.18617 0.13989 0.019467 0.36768 0.12871 -0.47424 0.43185 -0.32272 -0.23336 0.18578 -0.7964 -0.85826 -0.30895 -0.15212 -0.68945 -0.21674 0.023514 0.43614 0.1811 0.42193 -0.68192 1.201 0.23118 -0.045348 0.36077 0.25299 0.13495 -0.57915 0.34331 0.28618 -0.61768 -0.46489 -0.77816 -0.38611 0.39477 0.16803 -0.14992 0.36292 -0.6309 0.3862 -0.41485 0.026384 -0.41111 0.67138 -0.60019 0.39616 0.71167 0.44625 0.0021497 -0.47451 0.53642 -0.52357 -0.031637 -0.21668 0.2729 0.12702 -0.39784 0.29984 0.059558 0.033008 -0.20819 0.22585 0.0085792 1.1526 0.16626 0.038351 0.20181 0.14608 0.0033915 0.097289 0.40123 -0.13495 0.38213 -0.27708 0.56848 0.21866 -0.15539 0.71595 -0.43603 -0.1107 0.040144 0.054014 -0.039468 0.071505 0.15165 -0.19544 -0.44364 0.045452 0.094621 -0.16161 -0.29618 -0.77171 -0.12329 0.77508 0.5799 0.4241 -0.051787 -0.64585 -0.38376 -0.64607 0.32997 -0.35929 -0.36608 0.15643 0.20677 0.069534 -0.56526 0.56206 0.25672 -0.085986 0.66035 -0.3316 0.17975 0.13472
project 0.051495 -0.70472 0.30061 0.11244 -0.5022 -0.26308 -2.9591 0.55562 0.027679 0.54596 0.05071 0.037711 -0.013797 -0.20198 0.3808 -0.15369 0.08326 -0.38464 0.44738 0.56291 -0.067677 0.17034 0.38256 0.29068 -0.055428 -0.18607 0.022577 0.48775 -0.0039428 -0.039167 -0.49243 -0.61485 -0.11917 -0.50548 -0.055629 -0.24748 -0.074173 -0.31449 0.13641 -0.18076 -0.10037 -0.31314 0.28434 0.48794 0.30656 -0.18811 -0.15144 -0.16001 0.51007 -0.67709 0.23997 0.62341 0.61192 -0.10677 -0.0067312 -0.019536 0.18737 0.044284 -0.1156 0.38097 0.037073 -0.58581 -0.21452 0.071964 -0.2123 0.4771 0.52549 -0.19078 -0.29388 -0.65653 0.26943 0.11179 -0.0016194 -0.051166 -0.1384 -0.56905 0.33588 -0.060156 0.098238 0.26629 -0.5516 -1.0638 -0.12221 -0.083157 0.10531 -0.37281 0.14957 0.19538 0.30642 -0.18543 0.17383 0.26181 0.40946 0.014601 0.07976 -0.39534 -2.7187 -0.1931 -0.095325 0.015974 0.16265 0.25332 0.51343 0.21787 0.11885 -0.14662 0.032579 0.69166 -0.12368 0.3804 -0.44712 -0.005166 -0.10526 0.23759 -0.34651 0.16124 -0.15064 -0.032047 -0.061204 0.31583 0.12258 0.011364 -0.39668 0.3822 -0.20607 0.40562 -0.52139 -0.010217 -0.4459 -0.10722 0.68298 0.28266 -0.33115 -0.51442 -0.25504 -0.50582 -0.42283 0.32107 -0.017578 0.68059 0.057527 -0.2799 -0.072602 -0.058771 0.087783 -0.4853 0.31873 0.33472 0.44284 -0.0084212 -0.12215 -0.44151 0.28326 -0.57646 -0.37126 0.14126 -0.15206 -0.047609 0.28668 -0.56744 0.53721 -0.072536 0.080282 0.35546 0.54387 0.23496 0.0054058 0.42455 0.19818 -0.20935 0.1984 -0.045253 0.071096 0.26439 0.11279 -0.33629 -0.27056 -0.059595 0.17731 -0.23041 -1.6952E-4 0.10594 0.23389 0.17997 0.068269 -0.74756 -0.21081 -0.1105 0.099891 0.063501 -6.9217E-4 0.24509 0.091426 -0.30296 0.26356 0.46066 -0.29243 0.26388 0.048663 0.039827 0.066464 0.13968 -0.579 0.10828 0.66533 0.054052 0.37301 0.47985 0.46048 0.3293 -0.53862 0.11796 -0.12399 0.17194 -0.4171 0.21105 0.64209 -0.22961 -0.4837 0.25225 0.12663 0.28811 -0.34166 -0.4303 -2.5095 0.20122 -0.11583 -0.15007 -0.16745 0.029293 0.50641 0.31352 -0.25473 -0.037037 0.075577 0.54506 -0.1313 0.10324 -0.22675 0.46927 0.43298 -0.017468 -0.034841 -0.63573 -0.023154 0.19999 -0.13581 0.20425 -0.2978 -0.31178 -0.01713 -0.0059752 0.1444 0.15815 0.2666 0.076943 -0.11427 0.12213 0.77545 0.11872 -0.023213 -0.099841 0.24238 0.67472 -0.015188 -0.10788 -0.47278 -0.047345 -0.16928 -0.38386 0.37825 0.071131 -0.10759 0.011899 0.083861 0.71104 0.36695 -0.70896 0.28495 0.15633 0.24118 -0.30471 0.039501 -0.43465 0.53542 -0.12524 0.24127 -0.082501 0.22266 0.35594 -0.33925 0.042713 -0.79687 -0.51493 0.13366 0.35058 0.069385 0.86893 0.070471 -0.011865
dawn -0.51377 -0.45251 0.039898 -0.0095035 -0.1819 0.48212 -1.4394 0.067201 -0.11808 -0.40148 -0.011626 0.39359 0.45759 0.12201 -0.30176 -0.30304 -0.050668 0.23001 -0.16511 -0.26387 0.26041 0.024944 -0.22869 -0.29473 0.26416 0.20124 -0.47693 0.20371 -0.44465 0.14028 0.58064 0.0098951 -0.063067 0.20739 0.59024 -0.038828 0.073981 -0.47918 0.21935 -0.14336 -0.14424 0.2493 0.21717 -0.19998 -0.1138 -0.49987 -0.19249 0.083507 -0.32175 -0.029876 0.36907 0.40934 0.10251 -0.519 -0.10428 0.12416 0.52566 -0.055805 0.59442 0.24921 0.18723 0.40186 0.39462 -0.3844 -0.36511 0.14636 0.40485 0.0010506 0.72093 0.3535 -0.21332 0.33666 -0.4185 0.081374 -0.17768 0.22976 0.52123 -0.4305 -0.12666 -0.077824 -0.11751 -0.29733 0.36326 0.29653 -0.026059 -0.46918 0.10296 -0.36934 0.21316 -0.030152 0.16225 0.21291 0.37777 0.2341 0.56354 0.22356 -0.82176 -0.08457 0.37613 0.22656 0.1781 0.2492 -0.1072 0.14465 0.080916 0.063904 0.2783 -0.32146 -0.37461 -0.63977 0.17137 0.15674 0.22798 0.10576 0.017576 0.26016 -0.40534 0.17117 -0.17021 0.012286 0.082328 0.018847 -0.10889 0.30504 -0.37958 0.33596 -0.26085 0.13289 0.1892 -0.096909 -0.46411 0.015965 -0.36352 -0.31992 0.37752 0.14305 0.29372 0.0046587 0.20194 0.82671 -0.31617 0.17141 -0.40607 0.52323 -0.19741 -0.58856 -0.19562 -0.49014 0.77759 -0.047833 -0.069296 0.34752 0.00468 -0.3678 -0.052051 -0.041409 -0.044809 0.66108 -0.15104 0.23797 0.33764 0.44193 0.18831 -0.14001 0.84367 0.16885 0.27198 0.24875 0.30294 -0.079878 0.91826 0.5589 0.21306 -0.48424 -0.28041 -0.12531 -0.21881 0.28333 -0.19375 0.23949 0.0093273 -0.33334 0.25453 0.21591 -0.0089332 -0.1895 0.54173 -0.64871 -0.22881 0.42041 -0.025923 -0.42216 0.35835 0.065274 0.1671 0.03048 0.22539 -0.19209 -0.1522 0.22661 -0.51979 -0.10737 0.12708 0.27451 -0.056564 -0.3234 -0.1149 0.48385 0.20162 0.17652 -0.37728 0.094714 -0.45209 -0.25333 -0.37082 0.15912 -0.31674 -0.19771 0.13986 0.58331 0.37232 0.32807 -0.085254 -0.16251 -2.6752 -0.70162 0.24416 0.076252 -0.11613 -0.44772 -0.49083 0.46245 -0.58072 0.34163 -0.05764 0.0060092 -0.18132 -0.010916 -0.047528 0.32736 -0.23021 0.08736 0.16498 0.1157 0.07374 0.086483 -0.13006 0.67576 -0.079574 -0.58761 -0.19772 -0.41023 -0.34101 0.172 -0.087814 -0.34572 0.29939 -0.0068475 0.44975 0.023785 -0.31097 0.1474 0.1608 0.54146 -0.38528 0.27941 0.57871 0.052419 0.1528 0.021775 0.13336 -0.31449 -0.46456 -0.43682 -0.16692 -0.14537 -0.040636 -0.36583 -0.53763 -0.21969 0.52837 0.19781 0.11105 0.093177 0.10885 -0.37554 0.28697 0.010888 -0.21057 0.19093 0.023421 0.46896 0.23072 0.11479 -0.18648 0.090294 -0.46027 -0.099132 0.099823 0.23515
ear 0.050339 -0.39345 0.14302 0.28934 2.4776E-4 -0.56997 -2.2463 -0.12656 0.13356 -0.28639 0.17724 -0.75311 0.17553 -0.93327 0.22573 0.30626 -0.21102 -0.029891 -0.45656 0.48783 0.068277 0.22514 0.10374 0.13533 0.022884 0.025067 -0.32346 0.44597 0.22946 -0.23773 0.85252 -0.063987 -0.10137 -0.21475 0.13841 -0.37992 0.10664 0.1358 -0.009377 -0.4333 0.37837 0.20617 -0.23947 -0.46904 -0.24062 0.355 -0.64137 0.17404 -0.51907 0.45872 0.060854 -0.24787 0.31007 0.22148 0.025809 0.11108 0.7658 0.15374 0.22425 -0.12156 -0.17475 -0.27461 -0.097777 0.085324 -0.37999 0.65781 -0.85998 0.2118 -0.51753 0.26084 -0.049891 0.17695 -0.25261 0.044877 -0.1093 -0.56615 -0.37509 0.64497 -0.27956 -0.23227 0.07309 0.61279 0.44213 -0.33122 0.056307 0.45882 -0.12537 0.41356 -0.28861 0.16266 -0.25674 0.45249 -0.017871 0.05377 -0.16803 0.35609 -2.0421 0.24761 0.42394 0.48335 -0.1001 -0.080723 0.036406 0.053555 -0.6238 -0.17029 -0.20311 -0.25197 -0.05878 0.056745 0.28254 0.10774 -0.2314 0.25728 -0.12583 -0.26065 0.18739 -0.16459 0.15166 0.065661 -0.15329 0.19009 0.040562 0.39636 -0.018955 -0.29562 -0.0075444 -0.6654 0.13432 -0.17927 -0.0337 -0.49748 -0.90551 -0.18988 0.051804 -0.19412 -0.62822 0.16789 -0.38816 -0.37721 -0.2984 -0.11471 0.35676 -0.2757 -0.27739 -0.51327 0.18482 -0.56136 0.5597 -0.60388 0.15382 -0.56647 -0.58831 -0.13492 0.74529 0.1475 -0.29964 -0.18532 -0.38522 0.39827 -0.19284 -0.37412 0.073761 0.27722 -0.1065 -4.1867E-4 -0.45861 0.29329 -0.67406 0.18727 -0.49826 -0.31004 0.23979 0.15565 -0.4506 0.31322 0.20518 0.014451 0.29454 -0.19301 -0.48359 -0.1805 0.15974 0.28871 0.12356 0.56934 0.14252 -0.71754 -0.40821 0.47086 1.1088 0.16465 -0.13727 0.068377 -0.53962 -0.92782 0.43684 -0.19577 -0.28291 0.18862 1.0497 -0.60065 0.19308 0.099166 -0.34635 0.18447 -0.042604 -0.13246 -0.13715 -0.088714 -0.042791 -0.20829 0.36182 -0.48038 0.59293 0.21558 0.047012 -0.046431 0.0017653 -0.18483 -0.061037 0.0080164 0.23367 -0.24047 -1.7382 -0.59973 -0.94406 -0.071687 -0.51259 0.53545 -0.54205 -0.43608 0.0095303 0.10425 -0.16463 0.3765 0.018002 0.46748 0.36867 0.22746 0.28304 0.85554 0.11321 0.43762 0.19309 0.17558 0.10033 0.59209 -0.35765 -0.5744 -0.01767 0.93371 0.17851 0.078031 0.50946 -0.072079 -0.49062 0.98415 0.26791 0.47697 0.076613 -0.41016 0.052937 -0.74601 -0.84602 0.1027 0.29416 0.39077 -0.25719 0.0029815 -0.26833 -0.15565 0.73574 -0.10046 -0.43455 -0.57546 -0.29827 0.379 0.1632 0.13967 0.81878 -0.499 0.12491 0.19411 -0.36952 -0.24257 0.35798 0.22126 0.15446 0.44447 0.05643 -0.42351 -0.39147 0.12535 -0.72911 -0.66563 0.5279 -0.56205 0.28865 -0.036772
voyage 0.10526 -0.0023608 -0.14639 0.46384 -0.34955 0.3423 -0.86527 -0.22731 -0.26999 -0.025488 -0.22356 -0.5484 -0.32739 0.61862 -0.43252 -0.0053415 0.082685 0.34551 -0.23088 0.21247 0.43426 0.34412 -0.29787 -0.24166 0.52922 0.42476 0.11794 0.46222 0.50193 0.48137 -0.15026 0.17561 -0.12227 -0.51008 0.39255 -0.23632 0.75536 -0.16633 -0.23403 -0.23345 0.3049 -0.027245 -0.12371 -0.11816 -0.25964 0.19882 0.10498 0.3143 -0.89841 0.063839 -0.096872 0.27376 0.56876 0.46615 -0.52353 0.40633 -0.22876 0.19214 0.19954 -0.08468 0.22197 -0.0030591 0.094831 0.061382 0.042069 0.13856 -0.12331 -0.12358 0.10283 0.19284 -0.22229 0.053161 -0.53627 -0.053367 -0.89935 -0.074099 -0.049212 0.21443 0.42352 -0.18015 -0.18464 -0.15325 0.4645 0.16109 -0.47977 -0.090478 -0.42193 0.42927 0.038795 0.066105 -0.34235 -0.42619 0.3045 -0.035279 -0.36999 -0.24169 -1.0433 0.17536 -0.53787 0.59476 -0.43831 0.52968 0.82788 -0.0062668 0.11397 -0.50267 0.7318 -0.13834 -0.009506 -0.30681 0.088393 0.0040425 -0.41944 -0.046805 -0.41146 0.60308 0.12128 0.34105 0.10284 -0.10441 0.46401 0.88188 -0.17074 -0.58051 -0.23962 0.50427 0.25128 0.92284 0.46982 -0.077616 0.026994 -0.39225 -0.072395 -0.62712 0.50098 0.43111 0.47363 -0.30878 0.082659 0.25597 -0.21117 0.099315 -0.066476 -0.26162 -0.32817 -0.40205 0.095496 -0.024404 0.24011 0.12822 -0.01028 0.047205 -0.23212 -0.048765 -0.39025 0.55151 -0.15427 0.24586 0.39199 0.11405 0.76055 -0.0057404 -0.25171 -0.22914 0.053374 0.46127 -0.31079 0.083418 -0.20112 -0.23199 0.36623 0.2424 0.44273 0.22225 -0.02052 -0.30172 0.31099 0.4158 -0.040778 0.1315 0.2395 -0.11386 -0.49085 0.20065 -0.29019 -0.40333 -0.83277 0.33027 -0.63525 -0.34343 -0.096052 0.13264 0.33142 -0.010786 -0.32534 0.46815 0.6602 0.15167 -0.29143 0.10962 -0.73285 -0.2716 -0.68144 0.15011 -0.25024 -0.013619 -0.13188 -0.016363 0.66477 -0.013497 0.46977 0.31526 -0.74595 0.18186 -0.30706 0.23283 -0.1307 0.30509 0.40477 0.67038 0.17897 0.34697 -0.071312 0.24769 -1.7787 -0.15092 -0.6573 -0.028757 0.17263 -0.35317 0.77687 0.22591 0.017869 0.32138 0.20771 0.37214 -0.22825 -0.14709 -0.2101 0.26269 -0.17286 -0.48585 -0.51996 -0.3814 -0.27557 -0.0053405 -0.036416 0.14683 -0.03936 -0.47593 0.86271 -0.18267 -0.27913 0.074004 -0.099865 -0.56791 0.32613 -0.12777 0.51973 0.30521 0.14362 0.24393 -0.063529 1.0469 0.01431 0.44072 -0.35127 0.010949 -0.67072 -0.54657 -0.017532 -0.32167 -0.64076 -0.63707 0.30232 -0.082126 0.30416 -0.15859 -0.40231 -0.026824 0.38078 0.22634 0.39671 0.04616 -0.18119 0.083079 0.39788 0.21786 -0.22161 0.28952 0.66349 0.087073 -0.077271 0.29617 0.045363 0.34312 0.82274 0.37518 0.1666 -0.30663
valor -0.52077 -0.24966 -0.29958 -0.23305 0.62545 -0.081725 -0.49947 0.28409 -0.17156 -0.073955 0.47827 0.03171 -0.044549 0.25976 -0.21622 0.097147 0.56199 -0.12082 0.45508 0.20962 1.0738 0.16227 -0.05768 0.19961 0.20181 0.094278 -0.57123 -0.47296 -0.54411 0.64411 -0.38267 0.090076 -0.89761 0.27709 0.76727 -0.005664 -0.26734 0.012493 0.3013 -0.48039 -0.33085 0.4845 -0.65679 -0.47446 0.50862 -0.10683 0.017367 0.25579 -0.25855 0.3971 0.28173 -0.48701 -0.021924 -0.31471 -0.10233 0.32176 -0.23826 -0.23927 0.33954 0.30067 -0.046866 0.35951 0.029507 0.27209 -0.33827 -0.59852 1.1212 0.0054009 -0.32857 0.36079 -0.69396 0.70247 0.3448 -0.056177 0.11393 0.26325 -0.38948 -0.37936 -0.76777 0.20083 -0.56374 0.15012 -0.2562 0.24671 0.065239 -0.66975 0.12081 0.13439 0.4175 -0.17343 0.32474 -0.04497 0.19268 0.54255 0.48222 0.33123 -0.95329 -0.31337 0.21465 -0.16411 0.13267 -0.46931 0.77193 -0.11871 0.11435 0.035956 -0.39187 0.049688 0.51232 0.37689 0.13 -0.10894 0.32846 -0.13799 0.037571 0.29314 -0.12739 0.14567 0.19217 0.047227 -0.53687 -0.69148 -0.46161 -0.56465 -0.35191 -0.51508 -0.43436 0.055978 0.51533 0.42628 -0.074052 -0.31306 0.32982 0.42613 0.25393 0.04188 0.43389 0.33627 -0.458 0.54717 0.48468 0.092814 0.65691 -0.38555 0.040116 0.65658 -0.18722 -0.2025 -0.32561 -0.19681 0.17538 -0.21895 0.18893 0.027715 0.17969 0.25004 -0.47288 -0.63935 -0.1113 -0.11673 0.24251 -0.13887 0.43921 -0.34919 0.32098 0.09424 -0.27229 -0.52389 -0.015686 -0.044427 0.12365 0.018456 0.12939 -0.60395 -0.22002 -0.52905 0.067301 -0.63557 0.44096 0.17498 -0.18899 0.49047 -0.49807 0.048243 0.1895 -0.40145 0.27218 -0.22316 0.014559 0.098091 0.097501 0.45547 0.99915 0.27412 -0.35139 -0.16059 -0.093058 0.43275 0.82541 -0.483 -1.0214 0.21954 0.38084 -0.047527 -0.42821 0.49405 -0.13087 0.41413 -0.075258 -0.079086 0.019248 0.41078 -0.63358 0.16115 -0.23487 -0.41325 -0.38805 -0.35663 0.45817 0.18361 0.45707 0.45617 0.14892 0.48853 -0.92414 -0.54138 -0.25359 0.53903 0.39072 -0.2432 0.19279 -0.058812 0.03174 -0.38138 0.31025 0.53167 -0.04978 -0.26433 -0.45096 0.43359 0.39542 -0.43594 0.40066 -0.5545 -0.43699 0.025226 -0.51042 0.039841 -0.40305 0.13582 0.5404 -0.50291 0.099044 0.040011 0.1309 0.1567 0.33177 0.10947 0.10754 0.42345 -0.098585 -0.15361 0.24013 0.44376 -0.36578 -0.067071 0.29176 -0.1426 -0.47926 0.023826 -0.65836 0.31117 -0.41384 -0.15416 0.32882 -0.32424 0.79025 0.059917 -0.26092 -1.0344 0.09126 -0.26133 -0.028927 0.232 0.0059191 0.36562 0.11632 0.26856 0.34966 0.24355 0.012044 0.22205 0.28827 -0.35695 -0.30177 0.37339 -0.11246 -0.19327 -0.2918 -0.07387
butter -0.62173 0.026339 0.0065667 -0.73262 0.85061 -0.22891 -1.4465 -0.19357 0.4022 -1.5452 0.36909 -0.61525 0.47273 -0.16759 0.22315 0.2153 -0.40208 -0.54845 0.74801 0.11242 0.05341 -0.32439 0.45729 -0.28395 0.22704 -0.4692 -0.14842 0.0054562 -0.23378 -0.28119 1.3473 0.20359 -0.10036 0.048851 0.33767 0.63618 -0.12501 -0.25285 0.41175 0.048193 -0.013007 -0.098648 -0.24411 0.39727 0.11267 0.68408 0.22401 0.12621 0.31166 -0.13868 -0.32075 0.10635 0.17144 0.64543 -0.56429 -0.22654 0.14959 -0.02251 0.08146 -0.15592 0.33225 0.7966 -0.85558 -0.082909 -0.22107 -0.42252 0.0071912 0.073966 0.46754 -0.082938 -0.61542 0.084042 -0.1625 0.088754 -0.16467 0.29896 -0.29365 0.42145 -0.27184 0.15507 -0.40102 0.72355 -0.019246 0.17306 -0.18349 -0.075433 -0.68905 0.6962 -0.56095 -0.07636 0.17792 -0.49329 -0.67608 -0.18042 -0.27733 0.10966 -1.4826 -0.15595 0.10908 0.11382 -0.22372 -0.18668 1.1252 0.1575 0.068917 -0.048017 -0.66086 0.28143 0.2225 0.44239 0.43439 0.21849 0.55944 -0.096035 0.13898 -0.1647 -0.19538 -0.4777 0.24047 0.74555 0.33387 -0.077496 -0.23598 0.089771 0.070391 0.29201 -0.61376 0.054418 -0.52384 0.55053 -0.44612 0.15129 -0.24299 0.56648 0.21912 0.45122 0.24465 0.10795 -0.30074 0.13008 0.48056 0.045722 -1.0497 0.17279 -0.18979 -0.39157 0.77472 0.030264 0.50375 -0.32021 -0.11621 0.141 -0.19482 0.29342 0.10479 -0.022569 0.6768 0.51813 -0.16668 -0.89579 0.19429 0.44912 -0.2457 0.025311 -0.05812 -0.65842 0.30691 -0.23986 -0.70674 0.81581 -0.45369 0.13306 0.20735 0.29476 0.080665 0.35607 -0.047969 0.28428 -0.97977 -0.35241 -0.27399 0.14703 -0.15763 0.17882 0.13372 -0.033762 -0.51988 -0.21058 0.47376 0.079683 0.0030171 0.21256 -0.71046 0.088229 0.21313 0.11831 0.071515 -0.37711 0.27024 -0.38068 -0.30837 -0.11969 -0.21656 -0.37948 0.58283 -0.31606 -0.20004 -0.58612 -0.14261 -0.14134 0.058111 0.14173 0.50701 -0.62657 -0.31932 -0.90789 -0.065284 0.015446 -0.31082 -0.18987 -0.23715 -0.054639 0.25306 -0.45642 -2.2808 -0.18724 0.57102 0.4649 0.087016 -0.32098 0.49541 0.40521 0.53905 -0.20651 0.0296 -0.086554 0.15935 0.35303 -0.42477 0.3239 0.32795 -0.18959 -0.40921 0.4542 0.15447 -0.33753 -0.2464 -0.47644 0.48188 0.38022 -0.083906 0.11266 0.78168 0.42607 0.28975 -0.14561 -0.10668 0.67519 -0.28966 0.249 0.20596 -0.2624 -0.1921 -1.0881 0.16306 0.4373 0.15832 0.32933 -0.31565 -0.08298 -0.47453 -0.76781 -0.51048 -0.9736 -0.15262 0.24316 -0.27072 -0.19516 -0.3364 0.33281 1.1087 -0.083547 0.12359 0.94099 0.18746 0.0025297 0.28424 0.29369 -0.279 -0.2853 -0.86429 -0.33613 -0.049647 0.6107 0.84929 -0.45939 0.17951 -0.30929 -0.17781 -0.24014
gin -0.35613 -0.092826 0.33636 -0.06167 0.56657 -0.34633 -0.72215 -0.062633 0.55153 -1.1164 0.54292 -0.46853 -0.24126 0.22984 0.19451 0.2359 0.015815 -0.087599 0.10948 0.45462 0.35146 0.036059 -0.20137 0.37738 0.24049 -0.37929 -0.30371 0.13803 0.52788 -0.19125 0.70462 -0.011978 0.020719 -0.37626 -0.55875 -0.50909 0.29509 -0.22744 0.10936 -0.29178 0.56795 -0.56411 -0.15465 -0.91978 -0.40858 -0.0067136 -0.18508 0.14439 0.77027 0.18958 0.13808 -0.34399 -0.024526 0.3106 -0.47539 -0.23155 -0.31909 0.73232 0.62959 -0.27369 0.6354 -0.52132 0.068461 0.35497 0.013754 -0.30668 0.3283 0.10057 -0.37241 0.077666 0.036876 -0.45849 0.24138 0.13283 -0.49221 -0.094669 -0.095565 -0.19644 -0.12147 -0.20536 0.18112 0.12246 0.19154 0.11932 -0.73399 0.020824 0.26465 -0.45087 0.34808 -0.19528 0.21781 -0.22883 -0.69551 -0.044068 -0.37944 0.38999 -0.86107 -0.25139 -0.1673 -0.31777 -0.15709 -0.54041 0.38064 -0.028107 -0.16386 0.07669 0.32766 -0.060693 -0.28997 0.39931 0.82216 0.50907 0.18624 -0.26413 0.41075 -0.091305 -0.038377 -0.60381 -0.23559 -0.12583 -0.10313 0.22135 0.18164 0.50949 0.45059 0.095026 0.068376 -0.1994 0.10562 0.34479 -0.40709 0.26055 0.25817 0.57704 -0.67768 -0.35614 -0.029665 0.10998 -0.50396 0.52117 -0.21455 -0.22567 0.53213 0.40024 0.28814 -0.15965 0.32801 -0.1847 0.095455 -0.065709 0.53126 -0.53301 -0.046391 0.38467 0.22667 -0.22234 -0.12291 -0.45097 -0.52667 -0.077624 0.28442 -0.23812 0.43787 0.19802 -0.25162 0.17545 0.10408 -0.18885 0.32106 -0.2216 -0.23989 -0.12576 -0.27491 0.070563 0.12422 0.83527 -0.2705 0.63199 0.51041 0.61691 0.43604 -0.34408 0.12583 -0.18201 -0.087338 -0.3053 -0.82798 -0.20785 0.040528 0.21432 -0.63578 -0.64107 -0.4741 -0.066268 1.0913 -0.039002 0.40548 0.20476 0.13499 0.079642 0.44402 -0.21961 -0.41265 -0.20326 0.088557 -0.27597 -0.48062 0.0082912 -0.23483 0.032946 0.0066802 0.27706 0.26291 0.21166 0.59939 0.25165 0.29713 0.35142 -1.022 0.13066 -0.11105 0.22299 -0.24243 0.57523 -1.5508 -0.062342 0.45368 0.76225 0.13945 -0.34365 -0.60725 0.55276 0.24541 0.28884 -0.30576 0.31714 -0.14387 0.44175 0.1901 -0.70223 0.046038 -0.090519 -0.21013 0.63797 0.25653 0.15883 -0.22742 -0.039014 0.25324 0.32799 0.24879 -0.30364 -0.10572 0.25315 0.049546 -1.0695 -0.19848 0.17999 0.42315 0.50953 0.56176 -0.75831 0.43924 0.17034 0.50462 0.80481 -0.25784 0.18945 -0.35922 0.51754 -0.24815 0.19336 0.0022613 0.64419 0.27366 -0.096343 0.076151 0.13904 -0.60272 0.15226 0.33198 0.17032 0.31539 0.37894 -0.23098 -0.071484 -0.45506 -0.2688 -0.36815 -0.5331 -0.21911 -0.31041 -0.066415 0.15116 0.37856 0.056249 0.057422 -0.41189 -0.27865 0.23274
reservation 0.50588 -0.4503 -0.11284 0.34484 0.17347 0.043932 -1.8361 0.21671 -0.21006 0.6821 -0.53862 0.037906 0.38828 0.085747 0.32941 0.40826 -0.0054023 0.14557 -0.011598 0.19335 -0.054261 -1.1074 -0.53525 0.27681 0.2449 0.41767 -0.3524 -0.009922 -0.015099 -0.30069 -0.72971 -0.26353 0.96338 -0.31581 0.28307 -0.066903 -0.0060919 -0.17802 -0.098399 0.7369 0.30757 -0.12961 -0.43486 -0.29135 0.54853 -0.07462 0.14378 0.42771 -0.17391 -0.053705 -0.097773 0.10368 0.20223 -0.34963 0.0663 -0.25179 0.13535 -0.028729 -0.36664 0.15484 -0.19304 0.42599 0.40263 0.28058 -0.12278 0.65329 0.58218 0.19428 0.51523 0.38136 -0.73421 -0.3847 -0.21355 0.27735 0.096403 0.099693 -0.17842 -0.34055 0.2991 -0.2203 -0.35064 0.25489 -0.11863 -1.2171 -0.12962 -0.054416 0.15443 -0.34259 -0.0019385 0.2493 0.3517 0.0096914 -0.20013 -0.32603 -0.73615 -1.0374 -1.1773 0.13174 -0.4794 0.19687 -0.50547 -0.54497 0.32056 -0.066357 -0.63927 -0.16909 -0.46273 -0.50902 -0.46725 0.13941 -0.3293 -0.19893 0.43498 0.032441 -0.11352 -0.42998 0.2257 0.078973 0.28138 -0.4756 0.44122 0.25535 0.036455 -0.35699 0.013101 0.24827 0.089531 0.053828 -0.17802 -0.15365 0.54063 0.027218 -0.11658 0.01814 0.35774 0.53024 -0.19724 -0.33795 0.86033 -0.18259 0.34731 -0.12694 -0.55125 -0.096702 -0.30619 0.13185 0.28167 -0.19103 -0.5743 0.53304 -0.15748 -0.24688 0.43885 0.39942 0.24151 -0.9647 -0.54693 -0.4888 -0.3514 0.25634 0.48191 -0.64987 0.38167 0.48988 0.27341 0.56561 0.52703 -0.22289 0.24734 0.053322 0.43693 -0.23311 -0.31327 -0.1049 0.0066718 0.27615 0.52359 -0.68342 0.019569 -0.23894 0.69825 -0.044229 0.036318 0.47964 -0.57914 0.046191 0.32864 0.5703 -0.64946 0.46397 0.089575 0.12761 -0.085371 -0.05973 -0.43038 -0.13945 1.0458 -0.38016 -0.32031 0.090158 -0.02384 -0.28793 -0.03899 -0.83616 0.037727 -0.85131 0.11833 0.2087 -0.26699 0.33873 -1.8258E-4 0.42554 -0.029187 0.65566 0.04081 0.48214 -0.05218 0.4226 -0.35793 -0.20719 0.35702 0.11448 -0.021275 -0.35963 -2.3058 -0.068675 -0.08092 0.14895 -0.1897 -0.12603 0.52081 -7.2158E-4 -0.38271 -0.021837 0.089583 -0.32129 -0.23711 0.28999 -0.085858 0.20128 -0.42151 -0.16302 -0.27758 -0.74081 0.81031 -0.17278 -0.38143 -0.40046 -0.14617 0.22843 -0.13699 -0.13373 0.35602 -0.057623 -0.16762 0.23418 0.087079 -0.12759 0.034672 -0.25236 -0.050975 -0.11945 0.43096 -0.093223 -0.39709 0.84593 -0.21568 -0.62373 0.006502 -0.58823 0.85726 0.21781 0.027613 0.051445 -0.55224 -0.31704 0.33411 -0.25219 0.30815 0.15448 -0.66864 0.35237 0.18362 0.57878 -0.88376 0.5822 -0.38066 -0.079098 -0.20174 -0.2356 0.2506 0.66902 -0.16296 0.29515 -0.32155 -0.18576 -0.082906 0.61917 -0.76203 -0.15298
wealth -0.16609 0.20835 -0.008579 0.39579 -1.0307 -0.2851 -2.9112 0.025019 -0.11228 -0.049087 -0.42072 -0.06556 -0.08852 -0.19931 -0.14023 0.22942 -0.26042 -0.11543 -0.011577 -0.40185 0.1301 -0.16585 -0.30146 -0.015504 -0.15241 0.044652 -0.43274 0.27498 -0.40358 -0.044081 -0.37735 0.29194 -0.029799 -0.026172 0.2008 0.068133 -0.028976 0.00648 0.92472 -0.084009 -0.086183 0.19296 0.13668 -0.108 0.043903 0.41483 0.22572 0.012856 0.19146 -0.17277 -0.21679 0.20695 0.033878 0.028427 -0.52146 0.51323 -0.32669 -0.28154 -0.46713 0.69808 -0.11759 -0.15585 0.27248 -0.24643 -0.32629 -0.17828 0.016825 -0.37914 9.3981E-4 0.52948 0.040166 -0.13742 -0.12066 0.64183 0.037457 0.33949 0.098598 0.20049 0.54583 -0.23807 0.021631 -0.92517 0.073772 -0.047698 -0.16423 -0.3088 0.13221 -0.59291 -0.21936 -0.46156 -0.10485 -0.095566 -0.088778 0.22759 0.15921 -0.27256 -2.2758 -0.21078 -0.56199 -0.38164 -0.31529 0.97862 0.26022 -0.032906 0.33686 -0.31989 -0.33507 0.049592 -0.029355 -0.20054 -0.4128 0.39347 -0.012781 -0.17084 0.28336 -0.67699 -0.50193 0.027003 -0.051072 -0.19159 0.35188 -0.21295 -0.42445 -0.2437 0.10399 0.394 -0.29245 0.04019 -0.22592 0.41974 -0.70695 -0.034788 0.67102 0.226 0.16339 -0.31328 0.18669 0.28928 -0.078207 0.076015 -0.12119 -0.6518 0.36632 -0.80536 0.075165 0.5474 0.38242 0.20614 0.18952 0.048381 0.26843 0.14072 0.20509 0.13212 0.54838 0.90213 0.10019 -0.22948 -0.091661 0.24786 0.15708 0.44072 0.13315 -0.35714 -0.14757 0.28826 -0.73468 0.14706 0.24213 -0.15046 0.36292 -0.07106 -0.032353 -0.22336 0.026038 -0.089154 0.45405 0.027079 0.28606 0.21418 -0.16211 0.4499 0.14831 -0.69167 -0.27191 -0.40975 -0.20776 0.15752 0.068035 -0.86325 0.29 -0.12946 0.39294 -0.090638 -0.37081 -0.22018 -0.2493 0.56172 0.17886 -0.20909 -0.33598 -0.15954 -0.0070007 -0.086564 -0.59722 0.10772 -0.18712 -0.062379 -1.2039 0.40651 -0.38583 0.18311 0.33097 0.36776 -0.23049 -0.27266 0.35132 0.1676 -0.16352 0.45368 0.11733 0.15027 0.83589 -0.26457 -1.06 -0.78124 -0.47827 -0.6461 0.073465 0.10218 0.40403 0.21321 0.055479 -0.36486 -0.22501 -0.22296 0.0681 -0.42433 0.0049453 -0.6442 0.15284 0.14771 -0.19474 -0.024531 0.68138 0.27589 -0.14793 -0.29749 0.51351 -0.32511 0.2812 -0.018301 -0.11692 -0.47212 -0.32513 0.054256 0.74212 -0.022457 -0.18303 -0.37496 0.03733 -0.49969 -0.45805 0.057307 -0.36431 -0.19389 0.015179 0.6519 0.058059 0.42372 -0.14583 0.11875 -0.23205 -0.062251 -0.29532 0.31938 0.39185 -0.26645 -0.20747 0.201 0.11646 -0.27714 -0.28289 0.10383 -0.12231 0.19027 -0.14833 -0.35452 -0.31089 -0.89131 -0.068694 -0.035471 -0.14507 0.071947 0.040821 0.29955 -0.16375 -0.19 0.49791 0.19586
eat -0.15812 0.070825 -0.030782 0.17878 -0.044391 0.027565 -3.2836 -0.45129 -0.026026 -0.65293 1.1945 -0.27124 0.55503 -0.54863 0.13793 0.33853 -0.47638 -0.40718 -0.20036 -0.1466 -0.30256 -0.60864 -0.21918 -0.23267 -0.23112 -0.19561 -0.35577 -0.17173 -0.2402 0.11616 0.19129 -0.19553 0.52169 0.34086 0.26068 0.54076 -0.62804 0.14521 0.099668 0.205 0.052674 0.3472 -0.041157 -0.64947 -0.0028799 0.17438 0.29631 0.059937 -0.1127 -0.23635 -0.26763 -0.030517 -0.32135 0.24714 0.33865 0.0637 -0.10596 0.067891 -0.3185 0.066956 0.0022472 -0.27804 -0.014285 -0.044313 -0.26674 -0.3407 0.37369 0.029243 0.21253 -0.25543 -0.70223 0.29121 0.23912 -0.10787 -0.10456 0.041527 -0.088329 -0.43614 -0.41424 0.47086 0.20411 0.53532 0.42785 0.54038 -0.34222 -0.21867 0.17366 0.27561 -0.035607 -0.21191 -0.18447 0.30404 -0.2262 0.28655 -0.4258 -0.016283 -0.54553 -0.40892 0.27718 -8.1115E-4 -0.73401 0.31779 0.03096 -0.16113 -0.42542 0.234 -0.072774 -0.58456 0.073028 0.3749 0.38541 -0.24513 0.13207 -0.031716 0.020333 -0.16415 -0.63094 -0.52888 0.075789 0.073674 0.75243 -0.13428 -0.088767 0.31353 0.16846 0.42423 -0.19585 0.26179 0.11833 0.40803 -0.59672 0.59233 -0.38447 0.1619 0.45179 -0.5187 0.64498 -0.5459 -0.36674 0.27981 -0.13446 0.22121 -0.027903 0.086853 0.3569 -0.6237 0.49907 0.032615 0.76816 -0.31956 -0.18974 0.19274 0.056 0.10969 0.29192 -0.076168 -0.081405 0.39309 0.38045 0.45706 -0.016581 -0.019633 -0.38001 0.1739 -0.19902 0.28502 -0.30139 0.02892 0.069382 0.38328 0.12066 -0.29814 -0.11647 0.097886 -0.45917 -0.34771 0.43154 0.10185 -0.62418 -0.19865 -0.02344 0.02656 -0.16132 0.32709 -0.59018 0.19966 -0.67267 0.5184 0.56404 0.47856 0.19453 0.40181 0.0274 0.070277 -0.21553 -0.42711 -0.0013859 -0.019373 0.18089 0.15405 -0.19944 -0.14261 -0.65498 -0.30393 0.070451 -0.045807 0.083768 -0.75672 0.56557 0.086688 0.55478 0.061924 0.15625 -0.34239 -0.07936 -0.046222 -0.17695 0.19702 -0.38445 0.019524 -0.11152 0.03673 -0.20756 -0.38046 -2.7073 0.49688 0.3652 0.38772 0.31074 0.0039245 0.17044 -0.038048 -0.20908 -0.52583 -0.022676 0.059507 0.39736 -0.054441 -0.12038 0.30128 0.24493 -0.20259 -0.38611 0.39502 -0.12489 0.21836 0.31915 -0.006714 1.1665 0.59768 -0.011279 -0.081109 0.21297 -0.16258 0.29713 0.041445 0.089846 0.42117 -0.33029 0.059938 0.1663 -0.30382 0.33647 -0.56594 0.19121 0.42629 -0.17724 -0.05367 0.29561 0.68013 0.029285 -0.16519 0.1914 -0.18083 -0.049195 -0.40113 0.18551 -0.46334 -0.38353 -0.34352 1.7035 0.066518 -0.013677 -0.33457 -0.065292 0.62439 -0.21389 -0.090575 0.19475 -0.56697 0.021724 -0.067393 -0.19897 0.19436 -0.27121 -0.13988 -0.309 0.033202 0.15511 -0.44441
soap -0.18372 -0.19363 0.066911 -0.28905 0.78748 0.04648 -1.4391 0.15497 0.30266 -0.86108 0.31015 -0.30521 0.1607 -0.45412 -0.055052 -0.46077 -0.4169 0.40713 0.062225 0.024868 0.13895 -0.58784 0.51011 -0.34186 -3.7277E-4 -0.45124 -0.030786 0.053975 0.24269 -0.41149 0.86817 -0.40142 5.3637E-4 0.20769 0.39162 0.10785 0.16124 0.2383 -0.34273 0.1924 0.28385 -0.30697 -0.24679 0.92737 -0.12264 -0.040077 0.21728 -0.57111 0.059617 -0.22023 -0.62502 -0.7079 0.45153 0.33147 -0.091636 -0.1462 -0.23062 0.18873 0.42525 0.33207 0.37124 0.18529 0.11671 -0.45353 2.6554E-4 -0.043609 -0.072209 -0.029041 -0.16213 0.59103 -0.36234 0.20188 0.023556 1.0408 -0.742 0.37861 -0.040761 0.12922 -0.50186 0.10905 -0.11913 0.36179 0.49738 -0.0070663 -0.09295 0.52559 -0.40498 1.1459 0.18594 0.59186 -0.064074 -0.49041 -0.24599 -0.24058 -0.66493 -0.44325 -1.7975 -0.88203 0.88032 -0.60933 0.4507 -0.60263 0.63527 0.53452 0.31828 -0.23745 -0.27077 -0.35126 -0.32 0.16418 0.059574 0.69104 0.29245 -0.58445 0.084587 -0.09549 0.21216 -0.90474 0.37202 0.2564 -0.64039 -0.46866 0.35561 -0.30654 0.0021687 0.31662 -0.41206 -0.46968 -0.22263 0.34135 -0.54938 -0.30442 -0.77917 0.164 -0.45246 -0.1317 0.020172 0.36924 0.050428 0.64639 0.41388 0.24083 -0.70135 0.20196 -0.17615 0.2547 -0.037507 -0.20203 0.67326 0.094944 0.012837 0.28089 -0.4815 -0.11853 0.61977 0.50437 0.42673 -0.077142 -0.84772 -0.12469 0.016953 0.59122 0.11543 -0.1315 0.20506 -0.3108 0.89227 -0.069597 -0.047355 -0.38546 -0.088342 0.27525 -0.35045 -0.029575 -0.1336 -0.013969 -0.079148 0.1183 -0.096048 -0.37267 0.013568 -0.02349 0.17162 -0.17417 0.26633 0.071226 -0.51121 0.4466 0.56294 -0.22001 0.15494 0.51884 0.58499 -0.087903 0.12285 0.65352 0.21378 -0.093541 0.10855 0.24056 0.18378 0.2224 -0.59468 0.3282 0.89512 -0.56992 0.15533 0.38921 -0.19815 -0.3973 -0.3674 0.57283 -0.40326 -0.50183 0.036113 0.19633 -0.065151 -0.079678 0.10887 2.8979E-4 0.32716 0.13109 -0.57158 -0.69191 -1.9436 -0.51585 0.42472 0.25461 -0.15846 0.24427 -0.37972 -0.12837 0.16969 -0.24123 0.20668 -0.17518 -0.001256 0.60208 -0.66187 -0.61001 -0.3503 -0.46107 0.27407 -0.28696 0.11855 -0.89161 -0.14101 0.030231 0.75225 -0.48581 0.46804 0.19608 0.49267 0.39717 0.97434 -0.62612 0.010719 -0.091233 0.85234 0.36905 -0.35819 0.348 -0.43966 -0.13748 -0.15 0.37432 0.3434 -0.065388 -0.18785 -0.32268 -0.26688 -0.37823 -0.80281 -0.91156 -1.048 -0.40572 -0.26569 0.48651 -0.089385 0.40119 0.35011 -0.11296 -0.12778 -1.0075 0.53358 0.13833 0.29624 -0.091208 0.15813 -0.60646 0.14076 0.14466 -0.40771 0.15222 0.066514 -0.70258 0.083452 -0.57507 0.22004 0.17187
discovery -0.068785 -0.6997 -0.049763 0.41587 -0.17488 0.17138 -1.8703 0.42001 0.10876 -0.36189 -0.43733 -0.076968 -0.55217 0.016453 0.22287 0.28672 -0.090922 -0.30252 0.30559 0.3992 0.32055 -0.037066 0.15361 -0.4812 0.043811 0.5329 0.070191 0.24117 0.59336 0.51607 -0.29596 -0.026069 0.041383 -0.17346 0.20706 -0.019925 0.44168 0.050658 0.90955 0.19773 -0.68622 -0.4901 0.04578 -0.059065 0.17335 0.1024 0.24595 -0.5116 0.094654 -0.067114 -0.048283 0.64423 0.38131 0.028347 -0.020517 0.37847 -0.074909 -0.083444 -0.19769 -0.060038 -0.16574 -0.31525 0.24866 -0.11288 0.026233 -0.022289 -0.10722 -0.24033 0.18374 0.40426 0.056507 0.31069 0.15107 -0.11214 -0.6804 0.096752 -0.19299 -0.53504 -0.04569 0.067261 -0.29508 -0.92936 0.37528 0.18832 -0.12941 0.057603 0.069058 -0.15235 0.067776 -0.35779 -0.081814 -0.12847 0.22103 0.23808 -0.081785 -7.8185E-4 -2.1698 0.26194 -0.16097 0.62182 -0.052752 0.61256 0.53145 0.2083 0.088072 -0.64295 0.007233 -0.35366 -0.090043 0.4428 0.089693 0.076692 -0.35433 0.29257 0.0055089 -0.04866 0.3613 0.014904 -0.020384 -0.25014 0.172 0.17786 -0.1767 -0.45896 0.58534 0.46483 -0.15286 0.14922 0.29937 -0.1984 0.3431 -0.052796 -0.44029 -0.57177 0.36961 -0.22212 0.23728 0.21482 0.4952 -0.050837 -0.20574 0.17729 -0.48423 0.25815 -0.51433 0.79313 -0.020607 -0.32277 0.59217 0.1189 0.12338 -0.042058 -0.34206 -0.021977 -0.068982 0.42631 -0.42413 -0.068086 0.13349 -0.020072 0.11375 0.20332 0.28528 -0.087585 0.23739 0.23616 -0.15545 -0.19449 -0.17602 -0.058439 0.095171 0.36888 -0.37161 0.43239 -0.30084 -0.15164 9.6185E-4 0.1448 -0.65634 0.059596 -0.081535 0.59218 -0.07717 0.36051 -0.15946 -0.031145 -0.27328 0.1062 -0.052709 0.48456 -0.090554 -0.19512 0.003376 0.21433 -0.2083 0.28966 0.22365 -0.50552 -0.092428 -0.014426 0.06829 -0.24823 -0.50555 0.37214 -0.67772 -0.48106 -0.14301 0.55162 0.18627 -0.14958 0.18174 0.4237 -0.36208 -0.33419 -0.53758 -0.0078462 -0.041426 -0.24785 0.16536 0.72145 0.30845 -0.20975 -0.0082163 0.01561 -2.0952 -0.0138 0.055692 0.79553 0.037469 -0.17908 0.40763 -0.5782 0.14166 0.56597 0.35814 0.19821 -0.030393 -0.17788 -0.087362 0.20572 0.38476 -0.24341 0.32278 -0.36033 -0.037816 -0.50837 -0.63884 0.10091 0.15585 -0.43194 0.29553 0.01323 -0.36979 0.20852 -0.0012514 -0.18847 0.095331 -0.40808 0.51911 -0.22822 0.21862 0.071314 -0.26656 0.51739 -0.23502 0.55192 -0.26749 -0.27205 -0.0083611 0.2992 0.034276 -0.10488 0.418 -0.33659 0.35978 0.20472 -0.29187 0.087138 -0.16412 0.28679 -0.32395 0.36294 -0.010213 -0.48508 -0.18203 0.1231 0.30256 -0.49082 -0.22957 0.31349 0.45953 0.62788 -0.060871 0.27587 -0.36504 0.44542 0.60603 0.28013 -0.4389 -0.058537
hospital 0.18755 -0.31164 -0.45655 0.56513 -0.20942 0.12137 -2.0413 0.022403 -0.31875 0.26652 0.32815 -0.25427 -0.27872 -0.84926 -0.48357 -0.21301 0.46794 0.53119 -0.56448 -0.089082 -0.72756 0.16573 0.10464 -0.10155 0.26326 0.42443 0.25764 -0.55126 0.13114 0.081609 -0.73759 -0.27875 -0.65428 0.47228 0.25825 -0.068418 -0.2297 -0.12423 -0.15195 -0.88552 0.060895 0.2417 0.84969 -0.39986 -0.66845 0.10849 -0.27816 0.071425 -0.52882 -0.28723 -0.31792 -0.054753 0.82776 -0.14148 0.40261 -0.46647 0.45708 -0.36719 -0.3116 0.25931 0.04802 -0.19196 0.18831 -0.69904 0.0097046 0.1953 -0.53664 -0.0017756 -0.25997 0.22522 -0.067669 -0.93938 0.14101 -0.313 0.0053183 -0.031585 -0.67148 0.73769 -0.64162 0.16391 -0.045328 -0.92938 -0.62824 -0.71226 0.073199 0.83323 -0.18547 -0.21631 -0.058613 0.35359 0.27222 -0.063963 0.64162 0.17564 -0.064425 -0.61369 -1.7791 -0.11638 -0.42072 0.21802 0.27113 -0.41426 0.15043 0.24776 -0.17345 -0.18903 -0.25994 -0.35632 -0.41881 0.2411 0.55263 0.49765 0.26752 -0.2289 0.48283 -0.21327 -0.30478 0.2723 0.6558 0.020553 -0.44808 -0.25754 -0.18771 0.34663 0.12839 -0.27967 0.32804 -0.59111 -0.21057 -0.34356 0.58916 -0.15152 -0.67558 0.28143 0.42824 -0.060854 0.092873 -0.067795 -0.86546 -0.268 -0.017676 0.1974 -0.12239 0.17916 0.31292 0.68471 0.09085 -0.15207 -0.61904 -0.095153 -0.49285 -0.48169 0.21424 -0.55747 -0.6314 -0.39483 -0.0017451 0.14794 0.59107 0.47724 -0.033125 0.36184 0.19879 0.31124 0.07796 0.22711 0.11089 -0.077996 -0.2434 -0.35741 0.0011736 0.10447 0.42375 0.1215 0.048916 -0.058155 -0.10516 0.21486 -0.091758 -0.19158 -0.72645 0.26594 -0.19682 7.1609E-4 -0.92803 0.33771 0.32435 -0.21987 0.47247 0.46699 -0.40774 0.23296 0.15678 -0.20162 -0.20665 -0.6293 -0.29885 0.21805 0.85544 0.02496 0.2731 0.038269 0.31805 0.22927 0.19794 -0.18888 -0.066788 0.78083 -0.35331 -0.41653 -0.29751 0.59272 -0.60105 -0.37235 0.30461 0.067343 -0.18016 -0.10195 -0.23444 0.19388 -0.048983 0.89849 -0.067904 -0.24316 -3.3172 0.16802 0.3908 0.15866 0.065579 -0.19511 0.036757 0.31262 -0.59257 0.48364 -0.3751 0.36602 0.033718 0.097656 0.14234 -0.075102 0.2793 0.4085 -0.1138 0.28241 -0.41338 0.45711 0.46322 -0.45543 -0.7598 0.44406 -0.1543 -0.1032 0.90021 -0.43783 -0.16379 -0.61369 -0.26358 -0.72111 0.4123 0.36214 0.33209 0.024403 0.017504 -0.22212 0.52074 0.52839 0.089435 -0.5977 -0.77751 0.12576 -0.010296 -0.22967 -0.45552 -0.30832 0.21346 -0.84271 -0.077149 0.46716 0.68673 0.38049 0.17863 0.34631 0.24962 -0.42413 0.012321 0.21231 0.011367 -0.043839 -0.6898 -0.085631 0.063223 -0.011857 -0.58539 0.18074 -0.79497 0.11502 0.27752 0.11268 0.19369 -0.20936
computer -0.031564 0.12363 -0.17034 0.17133 0.36865 -0.79461 -3.5579 0.17796 0.75441 0.58339 -0.11223 -0.042855 0.30289 0.073101 -0.57529 0.51862 -0.063629 -0.47917 -0.27654 -0.13803 -0.23805 -0.10256 0.19888 -0.054682 -0.24799 0.098878 0.4041 0.20282 -0.16771 -0.56312 -0.1106 -0.091475 -0.22039 -0.34514 -0.17298 0.26311 -0.21555 0.43417 0.17068 -0.32459 -0.3077 -0.54136 -0.2115 -0.077317 0.019324 0.23751 0.13064 0.31118 8.6216E-4 -0.17932 -0.258 0.35938 0.25808 0.21604 0.02673 -0.21068 0.087728 -0.16411 -0.7436 -0.16145 -0.095305 0.30688 0.24271 -0.39576 -0.038444 0.44282 -0.24518 -0.015674 -0.12109 -0.27696 0.89339 0.47486 -0.12384 -0.14961 0.039767 -0.071248 0.48555 -0.10796 0.12866 -0.44291 0.097526 -0.5516 0.35941 0.33311 0.26719 0.062534 0.038835 0.11606 0.24872 0.32866 0.33618 -0.13122 0.19686 -0.59636 -0.059003 -0.7286 -2.4761 0.35499 -0.35514 0.06529 -0.24071 -0.56297 0.11793 -0.20558 -0.053589 -0.27031 0.14501 0.25187 0.42181 -0.5841 0.52304 -0.094851 0.28086 -0.10182 -0.20012 0.027604 0.83849 0.099567 0.53391 -0.051614 -0.65228 0.56034 -0.24725 0.5657 0.6224 -0.0013313 -0.061078 0.28091 0.15778 -0.078883 -0.36746 -0.1135 0.34683 -0.34307 -0.66522 -0.40799 0.37414 0.23621 0.44413 0.25652 -0.46241 -0.29659 0.58849 -0.12169 0.040179 0.27357 0.31198 -0.3768 -0.36703 0.22416 -0.038155 0.44718 -0.3331 0.046527 -0.068619 -0.72448 -0.23049 -0.1084 0.39921 0.088675 -0.77501 0.19918 0.63349 0.32388 -0.24801 0.4035 0.095542 0.39972 0.091854 0.0013229 -0.42163 -0.065369 0.10315 -0.096467 -0.038936 -0.41065 -0.30341 0.19919 -0.2987 0.15015 -0.10871 0.30035 -0.06167 0.43926 0.05245 0.11662 0.75746 -0.45388 0.079486 0.14919 0.34016 -0.35892 0.22505 0.20992 0.19844 0.061086 0.17339 0.26063 -0.21504 0.20883 0.31936 0.031858 0.01632 0.39724 0.17568 -0.52534 0.15846 -0.5316 0.23654 0.33958 0.098643 -0.15815 -0.64497 0.0077184 -0.099149 -0.067319 0.040069 0.041533 0.10653 -0.49237 -0.26243 0.37355 -0.14284 0.23587 -2.3197 0.028091 0.65555 0.167 0.1929 0.44413 -0.077807 -0.30216 0.22762 -0.30229 -0.11256 -0.49641 0.66201 -0.12402 0.27864 0.31177 -0.13911 0.21293 -0.36179 -0.5235 0.2482 0.061155 0.49518 0.016575 -0.06438 -0.27998 -0.42416 -0.30725 0.61977 0.42945 -0.14234 0.16373 0.061844 0.062197 -0.056889 -0.7704 -0.94593 0.23823 -0.38598 0.20857 -0.11557 -0.38105 -0.24519 -0.67342 -0.14655 0.22393 0.10798 -0.45121 0.12213 0.60165 0.23754 -0.11917 -0.032971 -0.20791 -0.19449 0.16553 -0.69798 -0.13873 -0.24696 0.77513 -0.43081 -0.47812 0.24499 0.03793 0.18513 0.47403 0.38382 -0.11372 -0.23123 -0.63183 -0.30435 -0.018789 -0.25481 0.20717 0.22784 -0.14264
queen -0.024756 0.21098 -0.27391 0.11676 0.34207 0.59674 -1.6625 -0.71236 -0.38982 0.21135 0.12848 -0.10475 0.19568 0.47413 -0.64812 -0.44301 -0.19771 -0.59709 -0.49772 0.38593 0.70825 -0.16881 0.31116 0.13343 0.23999 -0.30782 -0.3377 0.44352 -0.12464 0.23317 -0.32164 -0.79969 0.18964 -0.50427 0.29768 -0.29106 0.47486 0.15952 0.13672 0.0055676 0.13806 0.70558 -0.32474 0.017591 0.15573 -0.31812 -0.19014 0.23425 -0.33473 0.2257 0.24296 0.26994 -0.05281 0.44407 0.093179 0.63105 -0.10703 0.04962 -0.11147 -0.37428 0.20728 0.42995 0.52586 -0.2363 -0.12935 -0.069781 0.27371 0.32284 -0.38266 0.3399 -0.13584 0.15744 0.23516 0.51733 0.07089 -0.43225 -0.11843 -0.016253 0.46022 0.66376 0.45318 -0.0023902 0.055913 0.37157 0.63359 0.20889 -0.26412 -0.28077 -0.26206 -0.065746 0.051036 0.28658 -0.4484 -0.2428 -0.012025 -0.28354 -1.341 0.36895 -0.20389 0.10113 0.13241 -0.10147 0.14148 0.18577 -0.17263 0.02882 -0.86748 -0.63952 -0.50381 0.061901 0.10799 -0.44823 0.17719 -0.19566 0.69165 0.59291 -0.17529 0.19406 0.015949 -0.12129 -0.33761 -0.011858 -0.040041 0.25948 0.084359 -0.032077 0.075443 -0.023437 0.15562 0.68718 -0.18751 0.09888 -0.2465 -0.46489 0.62158 -0.17736 0.4508 0.45146 0.20388 0.21419 -0.0093379 -0.12895 -0.23326 0.52714 -0.23974 0.25534 0.02375 0.083562 0.10794 0.46538 -0.61955 0.16409 -0.074312 0.54043 -0.30267 0.02642 0.21305 0.13335 0.23588 0.48468 0.10768 -0.047941 -0.14999 -0.21196 0.30915 0.43654 0.327 -0.063789 -0.18329 0.30267 0.21864 0.56058 -0.4672 -0.40016 -0.44123 0.01864 0.040992 -0.33823 0.12789 0.47953 0.18047 -0.029812 0.20246 0.55313 0.31483 0.036236 -0.37485 0.018396 -0.082765 -0.013179 0.31002 -0.31907 -0.15216 0.37753 0.12337 0.5568 -0.18207 0.49524 0.48252 -0.49028 -0.56726 0.23371 0.69806 0.30217 0.070265 0.2283 -0.45479 0.11321 -0.26654 0.18047 0.080287 0.02898 0.068632 0.17575 -0.14862 -0.44213 0.47234 -0.044306 0.18305 0.18396 0.50808 -0.073392 -0.23029 -0.16202 -3.3703 -0.53797 0.057343 0.34035 0.36141 -0.20762 0.55178 0.42108 0.67959 0.12787 -0.67481 0.61804 0.24746 0.31775 -0.68553 -0.21669 0.46523 -0.19708 0.12353 0.87275 -0.24642 -0.025109 0.2672 0.050703 0.14275 0.24554 -0.38136 0.018448 -0.099026 0.1647 0.30259 0.031722 -0.67251 0.26684 0.060217 -0.090323 0.59334 -0.26684 0.21149 0.37063 -0.019727 -7.0734E-4 0.6683 0.029587 -0.4169 -0.11947 0.031522 0.068129 -0.83599 -0.32861 0.54427 -0.22 0.031119 0.11985 0.32969 -0.0062497 0.65329 0.14361 0.58712 -0.29219 -0.29141 0.29779 0.27875 0.10127 -0.10225 0.22291 -0.16592 0.47192 -0.39214 0.60434 0.272 -0.4672 -0.20581 -0.24458 -0.02509 -0.16166
wizard -0.34398 -0.19284 -0.15708 -0.44779 0.33403 0.013051 -1.8508 -0.077322 0.57535 -0.10901 -0.16634 -0.1514 -0.077672 -0.19142 0.16527 -0.50183 -0.30572 -0.43579 0.011805 0.26705 0.0094981 -0.12789 -0.12061 -0.089116 0.32713 -0.083926 -0.55396 0.31191 0.30668 0.061816 0.031014 0.24273 0.37814 -0.92046 0.058012 -0.12247 0.12918 0.22386 -0.38896 0.41047 -0.070487 0.10733 -0.66116 0.35373 -0.11181 -0.31379 0.13033 -0.0075846 0.096574 -0.045269 0.27937 -0.075867 0.61188 0.38519 0.047948 0.32391 -0.32519 0.17974 -0.41407 -0.04213 -0.27549 -0.19604 1.0483 0.066255 -0.37924 0.5022 -0.13777 0.024499 -0.33567 0.14008 0.67541 0.18446 0.068211 0.15442 -0.71803 0.30839 -0.11155 0.32485 -0.11085 -0.51421 0.29069 -0.48816 -0.20889 0.69321 -0.11128 -0.040796 0.049398 0.1914 -0.56681 0.33173 -0.36357 -0.36941 0.14504 0.25094 -0.39522 -0.23961 -1.1061 -0.073543 -0.16418 -0.98008 0.020066 -0.27775 -0.33356 0.36138 0.33906 -0.15075 0.10954 0.8514 -0.44201 0.34143 -0.15328 0.3803 0.0024783 0.28445 0.067755 0.19511 0.37189 -0.051918 -0.27667 -0.03372 -0.044206 0.12365 0.34473 0.45673 -0.74593 0.23384 0.17111 0.43254 -0.096735 0.75424 0.29983 -0.0029213 0.20469 -0.779 0.088554 0.1269 0.30141 0.48566 0.01202 0.59463 0.52775 -0.44004 0.77561 -0.055535 -0.84644 0.23136 -0.42365 -0.1111 0.11704 0.20317 -0.18056 0.06317 0.18606 -0.44845 0.60379 0.19694 0.11508 0.38601 0.38084 -0.13821 -0.3149 0.072475 0.19428 0.11528 0.068487 0.43191 -0.68395 0.31711 0.3483 0.043288 0.089216 0.26056 0.21709 0.27015 0.40783 -0.32844 -0.075812 -0.54009 0.25827 0.035908 -0.045236 -0.083238 0.40293 0.032711 0.1663 -0.62394 -0.19931 -0.21411 0.23321 -0.078291 0.46963 0.31113 -0.056726 0.12525 0.083895 0.24225 -0.016885 0.092011 0.52193 -0.028222 -0.016943 0.18813 -0.20724 0.35608 -0.20507 -0.076779 0.34136 0.13897 0.010643 -0.11267 0.18992 0.011832 0.20619 0.0057588 -0.228 -0.28866 0.5423 0.05768 0.75933 0.1153 0.58473 0.046758 -0.48636 -0.10763 -1.8632 0.068394 0.59318 -0.73212 0.045991 0.97565 0.063478 0.27472 -0.30672 -0.091371 0.51647 0.11993 0.50089 -0.002539 0.30055 0.43962 -0.0073815 0.16267 0.050823 0.23122 0.16677 -0.075394 0.013901 0.35097 -0.3138 0.386 0.15046 -0.15832 -0.011752 -0.1579 -0.17726 -0.83603 -0.041888 0.39276 0.37849 -0.56891 -0.27178 0.44559 0.0051508 0.23759 -0.63254 -0.011701 0.65043 0.093789 -0.16538 -0.27959 0.53 0.28376 0.17008 0.3945 0.21312 0.25496 0.010909 0.92275 0.032313 0.32429 -0.10939 0.27859 0.23805 0.54593 -0.13633 -0.56037 0.44689 -0.39072 0.192 -0.18188 -0.29124 0.021022 -0.010102 0.084282 -0.52574 -0.42339 -0.5256 -0.26 0.2648 -0.094231
oil -0.45493 0.74131 -0.36617 -0.83319 -0.036552 -0.13214 -2.2363 0.65468 0.25947 -0.79014 0.40048 0.42141 -0.1846 -0.39167 -0.093014 0.022353 0.034144 -0.215 0.67101 0.9883 -0.054372 0.43011 0.47262 -0.40447 -0.54422 -0.64457 -0.23799 -0.12278 0.69113 0.27702 0.35338 0.017571 -0.084503 -0.15694 0.42953 0.5091 -0.019349 0.065926 0.41866 -0.086836 -0.13679 -0.73754 0.98183 -0.17906 0.22067 0.58691 0.6074 -0.6482 -0.24709 0.29833 -0.35324 0.15234 0.26412 0.59529 -1.0236 -0.097348 -0.22698 0.31778 -0.40819 0.19915 -0.21355 0.80777 -0.68484 -0.4458 -0.47227 0.38253 0.35047 0.18411 0.010148 -0.68188 -0.34506 0.24912 -0.40677 0.54506 -0.45697 0.85677 0.40001 -0.066042 -0.13875 0.59853 -0.044154 0.37575 -0.13199 0.19604 -0.33468 0.67749 -0.26977 0.14648 -0.20868 -0.00854 0.16145 -0.26616 -0.31439 -0.11124 0.17498 -0.36636 -2.4427 -0.43215 0.60282 -0.27538 0.362 0.18113 0.53874 -0.15325 0.27598 -0.42282 -0.39771 0.36227 0.45376 0.70962 -0.38426 -0.092508 0.1551 -0.63342 -0.19446 -0.9723 0.16377 -0.33705 -0.30012 0.60773 0.36156 -0.17156 -0.38037 -0.65491 0.029207 0.78897 -0.89402 0.13103 -0.21459 -0.2294 -0.32457 -0.17287 -0.046758 0.5972 -0.37577 -0.20585 -0.003711 -0.23054 -0.25613 0.20544 0.1617 0.41831 -0.64027 0.071659 0.018339 0.17675 0.41048 -0.22645 1.128 0.14378 -0.33705 0.1886 -0.38349 0.038429 -0.19861 0.29807 0.60632 -0.58171 0.019646 -0.78107 -0.33441 -0.076051 0.27875 -0.41109 0.23053 -1.179 0.63034 -0.0016195 -0.27311 0.037442 -0.36554 0.23451 -0.033303 0.74768 -0.055313 0.38683 -0.25591 -0.005695 0.335 -0.17156 -0.09519 0.25472 -0.23875 -0.56774 -0.62114 0.43075 -0.054551 -0.41448 0.08929 -1.0879 0.012267 -0.11746 -0.080161 -0.052632 -0.32963 -0.42007 0.060798 -0.2384 -0.55738 -0.65425 -0.41677 -0.43656 -0.62603 -0.23372 -0.16434 -0.18282 -0.17258 0.58295 -0.86028 -0.34915 -0.52023 0.37765 4.9255E-4 -0.27226 -0.012608 -0.18577 0.4274 -0.09519 -0.30239 -0.4448 -0.17596 -0.30845 -0.12614 0.30051 -2.9906 -0.37608 -0.066846 -0.06397 0.10214 0.18619 0.23592 0.10773 0.43791 -0.043945 0.42095 -0.32792 0.20089 0.41077 -0.40232 -0.0088925 0.062043 0.36013 -0.74617 -0.45093 0.57245 -0.053815 -0.26962 -0.74203 -0.081146 -0.53423 0.0023848 0.33073 0.047805 0.54504 -0.2157 -0.4868 -0.4436 0.51003 -0.35647 0.62903 0.15688 -0.45213 -0.8078 -0.33597 -0.90105 0.20451 0.35222 0.55275 -0.060545 -0.38214 -0.098816 -0.36127 0.14975 -0.57361 -0.28209 -0.13325 0.39622 -0.10838 -0.47406 0.12148 1.3809 -0.076249 0.2874 0.010918 0.25228 -0.46603 -0.025081 -0.40661 -0.49666 -1.1559 -0.37293 4.1328E-5 0.59166 -0.075783 0.5587 -0.76609 -0.33318 0.2046 0.04113 -0.046427
currency 0.64017 0.10189 0.29545 0.1562 -0.60521 0.65085 -2.5139 0.97497 -0.25919 -0.088243 -0.40947 0.69315 -0.0823 0.54986 -0.12903 0.31109 0.20443 0.37799 -0.06134 -0.49085 0.32155 -0.32458 -0.2589 -0.076814 -0.19529 0.085686 0.2259 -0.15562 -0.18606 -0.3162 -0.7162 0.15668 1.0058 0.17043 -0.084277 -0.43493 -0.080623 0.1942 -0.21123 1.0345 0.35245 0.46384 0.54627 0.14676 -0.14709 0.018267 0.36765 0.1243 0.11814 -0.043071 -0.021387 -0.12622 -0.28886 0.099363 -0.59102 -0.72681 -0.87326 0.20076 -0.77503 -0.19515 0.067789 0.36923 0.75526 0.46065 0.479 0.15512 -0.024488 -0.21137 0.031471 -0.069379 -0.21773 1.0076 0.31721 0.447 -0.23442 -0.13972 -0.47783 0.41146 0.52828 -0.10025 -0.22681 -0.077601 -0.10681 -0.3927 0.27411 -0.11633 -0.052032 -0.29964 -0.4601 0.39757 0.074887 0.16739 0.11805 -0.309 -0.13171 -0.78169 -1.9737 0.51644 -0.59113 -0.45848 -0.39428 0.69704 0.58323 0.7873 -0.1055 -0.44178 -0.27829 0.62727 0.32717 -0.3881 0.062504 -0.83703 -0.20092 -0.74103 0.30858 -0.5474 0.26905 -0.029542 -0.12936 -0.4999 0.50198 0.24658 -0.038844 -0.15849 0.75698 0.43839 0.2074 0.22356 0.28488 -0.13515 -0.25291 -0.1784 0.34656 -0.03915 0.01148 0.23664 -0.23374 -0.013285 0.29766 -0.36992 0.29454 -0.2273 -0.2211 -0.087922 0.52362 -0.0019139 0.019399 -0.1921 0.28546 -0.27653 0.72607 0.17954 0.39405 -0.52488 0.35014 -0.34781 -0.27166 -0.21427 -0.27306 0.053193 -0.75054 0.7703 0.37707 0.24032 -0.39179 0.098659 0.080107 -0.80542 -0.035072 0.33947 -0.14991 0.17886 0.38819 -0.72331 0.13778 0.84573 0.038025 0.21185 -0.27156 0.52432 0.29917 0.12399 0.25138 -0.6734 -0.41603 0.18649 0.02846 -0.64513 0.86926 -0.48383 -0.23224 -0.14588 0.091521 -0.019877 0.41855 -0.027229 -0.028165 -0.62223 -0.12807 -0.010021 -0.49085 0.24837 0.47145 -0.81614 -0.43796 0.80605 -0.18137 0.44022 -0.31712 0.44652 0.29599 -0.08282 0.069669 -0.15581 -0.14506 -0.66645 0.16842 0.10959 -0.45005 -0.17748 0.29333 0.2886 -0.56535 0.48051 -1.305 -0.31612 -0.43585 -0.25028 0.32537 0.28488 -0.58998 0.056974 -0.18247 -0.17733 0.5741 -0.2435 -0.03683 -0.14341 0.1593 -0.44663 0.31441 0.040497 0.54292 -0.73508 0.12814 0.60635 0.21514 -0.73351 0.77232 -0.17082 -0.31684 -0.13178 0.016066 -0.46676 -0.88923 0.086401 0.20084 0.063734 -0.14394 0.097884 0.20175 0.19843 0.13027 0.060787 0.026524 -1.0919 1.1077 -0.49612 0.27258 -0.48869 -0.39876 0.12868 0.28821 -0.11261 -0.44174 0.044464 0.81387 -0.37006 -0.14533 -0.71026 -0.014517 -0.093489 -0.030375 0.10167 -0.10172 -0.94598 0.063097 0.16589 -0.65694 -1.3698 -0.39475 0.40043 -0.25516 0.23577 -0.78154 -0.062652 0.028431 0.22319 0.17137 0.10314
laundering -0.16771 0.75948 -0.20101 -0.19426 -0.011217 -0.014677 -1.2308 0.084778 -0.38082 -0.40663 1.979E-4 0.92304 -0.063626 -0.40015 0.2585 -0.03338 0.63655 0.88923 0.18172 0.95945 -0.12985 0.037989 -0.11978 0.36979 0.18982 0.6629 -0.28507 -0.31149 0.3821 -0.62796 -0.85363 0.25351 -0.52001 0.11543 -0.14564 -0.95747 -0.53368 -0.096815 -0.13937 0.53324 0.072063 -0.05202 0.059615 0.96185 0.021614 0.10523 0.13614 -0.091124 -0.6977 0.67843 0.32439 -0.43942 0.38006 -0.10656 -0.61449 -0.48072 -0.29336 0.15254 -0.31326 0.70097 -0.020254 0.49686 0.17337 -0.050872 0.15152 0.33126 0.58942 -0.16834 -0.1393 -0.06534 0.89922 0.047152 0.95343 0.17923 -0.059257 0.55636 -0.42503 0.055751 -0.15538 -0.49518 0.16357 -0.51672 -0.1223 0.09341 0.55059 0.034082 0.4153 -0.31779 -0.12954 -0.4213 -0.07812 -0.36709 -0.51137 -0.14019 0.27926 -0.44548 -1.2959 0.015202 -0.34424 0.038608 0.35313 -0.23829 0.53666 0.64374 -0.43522 -0.032658 -0.29301 0.77962 -0.095592 -0.88251 0.18752 -0.73829 0.74109 -0.51024 -0.1721 -0.63467 0.57392 0.11902 -0.2673 -0.27156 0.20976 0.44375 0.24129 -0.13229 -0.10556 0.1339 0.18118 -0.017689 0.3516 0.16665 0.54588 -0.55486 0.010594 0.12257 0.074756 0.087213 0.052604 0.53934 0.43695 -0.31244 0.012085 -0.56999 -0.14569 -0.34492 4.4953E-4 0.38573 0.65125 -0.030557 1.1495 0.093139 0.34985 -0.09976 0.043941 -0.12054 -0.2998 -0.18824 -0.24815 -0.061348 -0.11255 -0.52493 0.52733 0.74971 -0.037183 -0.52438 0.39682 -0.79427 -0.17967 -0.047699 0.013795 -0.0037489 -0.24583 -0.049749 0.065665 0.1128 -0.28064 0.23198 0.69652 0.87592 0.27407 0.24243 0.35839 -0.48264 -0.28508 -0.41244 -0.55519 -0.2819 -0.30462 -0.52744 -0.20282 0.27402 -0.42546 -0.59909 0.30622 -0.42397 0.076914 0.46751 -0.29695 0.51604 0.17796 -0.06242 -0.1571 0.28866 -0.64738 -0.26587 -0.079604 0.046537 -0.59775 -0.48206 -0.61077 -0.16076 -0.14534 0.10158 0.35156 -0.23003 -0.24581 -0.25417 0.19851 -0.037475 -0.60856 -0.81185 0.56417 0.038607 0.42188 -0.52992 -0.045056 -0.22728 0.14683 0.7223 0.43975 0.050958 -0.037421 0.28077 0.34911 0.36731 -0.25481 -0.53289 -0.070632 -0.56571 -0.53619 -0.3879 -0.34928 0.055748 0.90308 -0.12175 0.30037 0.053236 -0.24057 -0.4004 0.98447 -0.56819 0.034601 -0.27962 0.24686 0.17538 -0.50723 -0.26454 -0.14928 0.19582 0.73543 -0.49396 -0.3543 -0.18599 -0.51135 -0.33231 0.16912 -0.13852 0.36966 -0.038307 -0.030757 0.32012 -0.014819 -0.3488 0.45038 -0.25219 0.12257 0.37036 -0.2323 0.15959 0.052495 -0.49808 0.21624 0.16699 0.1155 -0.28874 0.09501 -0.3932 0.26194 1.0392 0.30973 -0.20372 0.30709 -0.39167 -0.72154 -0.28142 -0.97427 -0.20658 -0.063757 -0.50152 0.058832 -0.57905
midday -0.05983 -0.38085 -0.04062 -0.025366 -0.33995 0.55037 -0.82105 0.26436 -0.37701 0.11486 -0.50421 0.20643 0.092553 0.33457 0.24871 -0.23216 -0.21743 0.12281 -0.094898 -0.0097003 -0.13757 -0.1364 -0.11525 -0.3746 0.037104 0.078966 -0.62609 0.019215 -0.3972 0.063363 0.067694 0.78481 0.37147 -0.015531 -0.23332 0.14395 -0.07159 -0.46412 0.18979 -0.55674 -0.050718 -0.072171 -0.19595 -0.4092 0.13926 -0.017122 0.3823 -0.87376 -0.4753 -7.8532E-4 -0.086953 0.46589 0.13559 0.43889 -0.038173 -0.16381 0.15677 -0.59158 -0.25576 -0.070223 -0.32343 0.30426 0.35767 -0.10938 -0.24703 0.1698 -0.22705 0.33285 0.44677 0.1089 -0.16808 -0.17338 -0.017911 0.15894 -0.10932 -0.31062 -0.12245 -0.010642 0.049574 -0.61722 0.40439 0.57566 0.025346 0.011658 0.22208 0.31488 -0.43582 -0.56483 0.17191 0.28248 0.27338 0.39805 0.3248 -0.2995 -0.23872 -0.29067 -0.11677 0.01299 0.35752 0.20798 -0.11602 0.46229 0.26946 0.55835 -0.50806 0.12276 0.21232 0.04363 0.41557 0.44225 0.4387 -0.53606 -0.16027 0.29891 -0.072391 -0.10968 -0.91308 -0.25961 -0.11394 -0.032834 0.3124 0.26873 0.30931 0.25977 -0.014111 0.31316 -0.10543 -0.086842 0.22567 0.39216 -0.174 0.29189 0.062953 0.21411 -0.039752 0.003198 0.050498 0.093795 0.43999 0.58617 -0.31266 0.13034 -0.32342 0.39559 0.19279 0.2224 0.50785 0.046118 0.31943 0.55292 0.12644 0.17552 0.48388 -0.73272 -0.15065 0.20932 0.19601 0.28462 0.033287 0.4256 0.4232 -0.023576 0.39473 -0.31154 -0.068615 -0.11492 0.62586 -0.17254 0.092177 -0.21356 -0.095225 -0.05273 0.14965 -0.15446 -0.18011 0.10028 0.44254 0.50699 -0.42282 -0.16866 0.37115 0.13192 0.45483 -0.14235 -1.1889 -0.3873 -0.27232 -0.12212 -0.17136 0.23306 -0.17242 0.11234 0.21788 0.35556 -0.4168 -0.55687 -0.3378 -0.022404 -0.33233 0.14767 0.088272 0.079717 0.38078 -0.4592 -0.10244 0.045728 -0.49531 0.0045401 0.061845 0.38442 -0.39631 0.30292 -0.48143 -0.47156 -0.5954 0.096605 -0.65977 0.85494 -0.10784 -0.0060499 -0.72863 0.5575 0.2268 -0.25892 -1.692 0.18321 -0.16371 0.30734 -0.9442 0.36263 -0.018557 0.3737 0.11403 -0.19071 0.47931 -0.03429 0.33354 -0.23619 0.31546 -0.38283 -0.34745 -0.099878 0.008124 0.30981 -0.71478 -0.038317 -0.0018342 0.12334 0.16548 0.24522 -0.23378 -0.28839 -0.14156 0.073433 -0.39908 0.3702 0.57792 -0.13451 -0.27103 -0.51851 -0.12198 -0.14911 0.71768 -0.2673 -0.0064466 0.26935 0.14883 0.12343 0.26195 -0.03116 0.024966 -0.021438 0.52202 -0.68788 -0.12386 -5.1712E-4 0.61222 -0.53307 -1.1324 0.079254 0.32573 -0.38564 -0.37224 0.029198 -0.031572 -0.17151 -0.33274 0.03779 0.011372 -0.82371 0.48227 -0.23163 0.75932 -0.66771 -0.31303 0.52984 -0.32098 -0.34513 -0.71764 -0.44719
man -0.31997 0.42539 0.31783 0.27231 -0.27272 0.065664 -2.8732 0.028408 -0.23479 -0.8169 0.021721 -0.26259 -0.26184 0.25601 0.1551 0.12606 -0.21451 -0.50679 -0.070301 0.29921 0.1479 -0.31558 -0.11535 0.088366 0.046137 0.23799 -0.2917 -0.10562 0.10199 0.16731 -0.031972 0.46797 0.25463 -0.076973 0.088044 0.31461 -0.14586 0.66113 -1.659E-4 0.036624 0.22931 0.70488 -0.26504 0.21776 -0.26509 0.091054 0.3796 -0.24803 0.13767 0.42827 0.1012 -0.36688 -0.60553 -0.025832 0.1419 -0.18515 -0.059038 -0.13205 -0.22283 -0.10241 -0.057371 -0.15417 0.47278 -0.16831 -0.053488 0.35089 0.19007 0.041277 -0.45401 0.0038053 0.19792 -0.094505 -0.42538 -0.31554 0.25692 -0.17313 -0.027906 -0.56959 0.13326 -0.53126 0.20796 -0.79545 0.12519 -0.10393 0.16679 -0.12932 0.44387 -0.1059 0.22886 -0.27519 0.036786 -0.24953 -0.2009 0.10256 -0.39404 -0.25858 -1.792 -0.0039987 0.038794 0.28376 -0.21694 0.36033 -0.38823 -0.11534 -0.11294 -0.037268 0.16745 -0.54116 0.50175 -0.22687 -0.21323 0.11787 0.14906 -0.42167 -0.19104 0.66337 0.4309 0.18367 0.018689 0.90806 -0.94515 0.071569 0.10403 -0.020555 0.27586 -0.74627 0.096171 -0.046277 -0.52097 -0.61587 -0.16232 -0.065848 -0.35164 0.35745 -0.098098 0.0044447 0.42004 0.19763 -0.38726 0.88245 -0.26781 -0.1522 0.7226 -0.34715 0.25061 0.22948 -0.63839 0.17079 0.4591 -0.020815 0.52708 -0.053548 0.88152 -0.34541 0.44276 -0.14508 -0.19161 0.17109 0.66045 0.048542 -0.14215 0.11637 -0.22742 -0.091583 -0.086836 -0.085438 -0.33625 -0.22221 0.052862 -0.10309 -0.076646 -0.32732 0.077977 0.33653 -0.14939 -0.088448 0.33848 -0.38607 -0.029413 -0.15563 0.40235 0.080794 -0.24206 0.14687 -0.14589 -0.26349 -0.27824 0.38692 -0.029309 0.18394 0.82664 0.40267 0.35687 0.094766 -0.23168 0.32747 0.21207 0.11102 0.4628 -0.010925 -0.44697 0.079102 -0.27388 -0.36123 -0.076223 -0.21722 0.27207 0.2084 0.23857 -0.22804 -0.075392 -0.051556 0.081585 0.039583 -0.31163 0.35625 0.039996 -0.1849 0.22071 -0.064769 0.28266 -0.075221 0.1628 0.42552 -3.3032 -0.56886 -0.43567 -0.088566 -0.57103 -0.66719 0.19099 0.54479 0.19282 -0.26936 -0.13873 -0.31159 -0.16999 0.022548 0.51362 -0.11606 0.19033 0.026342 -0.050913 0.62862 0.14379 -0.25198 -0.34535 0.11984 -0.28453 0.29082 0.11315 -0.074837 -0.12477 0.37018 0.57398 -0.72637 -0.038835 -0.0072306 0.43683 0.0046701 0.15048 -0.39074 -0.059641 0.14963 -0.29086 0.63112 0.45308 -0.19072 -0.12848 0.12335 0.18312 -0.38417 -0.35284 0.21608 -0.44021 0.11164 0.11287 0.13762 0.070855 0.32444 1.1854 -0.44511 0.30276 0.14079 0.24188 -0.52753 -0.1372 0.15618 -0.32807 0.037113 0.0049009 -0.72261 0.23081 -0.19445 -0.067499 -0.071089 0.057527 -0.3922 0.015755 -0.058172
keyboard 0.36771 -0.12651 0.3334 0.60073 0.24673 -0.35528 -2.6112 0.2615 0.81165 -0.12803 0.27073 0.30611 -0.032974 0.0921 -0.57577 0.079551 -0.002508 -0.35069 0.049315 0.093661 -0.19716 0.19367 0.24429 0.33646 0.071825 -0.058961 0.22584 -0.32646 -0.014553 -0.6416 0.3443 0.22243 -0.21909 -0.22062 0.13675 -0.37874 0.025257 0.19908 0.34835 0.56565 0.21505 -0.82238 -0.69304 0.2288 0.46811 0.034772 -0.24922 0.0028318 0.29243 -0.38965 0.091273 -0.22949 -0.13136 0.45377 0.62184 0.22087 0.018565 0.13349 -0.34228 -1.1364 -0.19826 -0.39678 0.8319 -0.43557 0.18506 -0.41729 -0.51746 0.30677 0.25774 -0.39318 0.85919 0.28513 -0.41494 -0.10155 -0.38758 -0.31421 0.45376 -0.13032 0.12668 -0.082877 0.052626 0.040086 0.75459 0.12133 -0.061032 -0.099588 -0.26078 1.154 -0.085849 0.83736 -0.046879 -0.075661 0.07221 -0.58495 -0.4728 -0.077327 -1.362 0.056342 0.11337 -0.081224 -0.061269 -0.54534 0.3473 0.40667 0.14602 -0.15934 -0.43308 0.93356 -0.48581 0.17172 -0.24347 -0.35489 -0.12771 0.25319 0.046801 0.48285 0.35199 0.35914 0.368 -0.29595 -0.21087 1.122 -0.22424 0.35031 -0.28218 -0.38639 -0.28351 -0.35583 0.66628 -0.13754 -0.63011 -0.30898 -0.1098 -1.0506 -0.66508 -0.32555 0.16874 0.54549 0.64452 -0.055262 0.053274 0.13526 0.36941 -0.11015 -0.033834 -0.2062 0.14761 -0.35957 0.29398 -0.50147 -0.3499 0.45752 -0.10751 -0.37007 0.57037 -0.094815 -0.076851 0.17694 0.35618 0.78536 -0.76366 0.12236 0.095094 0.21547 -0.26476 0.27987 -0.5336 0.17728 -0.37576 0.40683 -0.53924 -0.41814 0.51031 0.022293 0.02888 -0.25278 0.10754 0.22137 -0.069214 -0.25353 0.54034 0.2685 0.08537 0.09123 0.94135 0.77076 0.66916 -1.0297 -0.26416 -0.28619 0.16729 -0.11382 0.19366 1.2569 0.52495 0.52184 0.35616 0.24576 -0.20178 -0.088449 0.33455 -0.30186 0.35793 -0.16018 -0.2215 -0.22257 0.29387 -0.45024 0.48168 0.26352 -0.53319 0.070636 -0.71826 -0.14088 0.55566 0.2376 -0.17126 0.72727 1.0388 -0.27513 -0.37929 -0.39499 0.24371 0.037991 -1.7234 0.26386 0.26568 -0.58106 -0.0083245 0.37507 -0.42071 -0.26267 0.19541 -0.15459 -0.14639 -0.8345 0.56008 0.059435 -0.23122 0.48951 0.20637 0.096269 -0.70202 0.006479 -0.56875 -0.44133 0.59119 -0.46775 -0.50511 0.059977 -0.2614 -0.32137 -0.16797 -0.47091 0.30158 0.39087 -0.60451 0.23411 -0.53347 -0.12336 -0.017731 0.22689 -0.10928 -0.1203 -0.78344 -1.0165 -0.55406 -0.65415 0.021317 -0.069402 -0.064803 0.25883 0.52916 0.25645 0.25318 -0.080415 -0.15368 0.16227 0.57817 0.5309 0.19855 0.0694 0.076409 0.73263 0.051738 0.28445 0.30675 -0.27687 0.55065 -0.42868 0.084314 -0.49827 -0.12365 -0.54399 0.08285 0.12711 -0.21834 -0.70172 -0.15337 0.0074622
announcement -0.32522 -0.62297 0.54684 0.11679 -0.091358 0.040722 -1.8232 0.86241 -0.17813 0.11752 -0.05047 0.4201 0.35734 0.14869 0.031326 -0.27945 -0.2843 0.32017 0.31782 -0.12703 0.38697 0.058898 0.2371 -0.0056622 -0.14388 0.48621 -0.4601 0.21533 0.35471 0.19865 -0.50526 -0.093741 0.096929 0.23024 0.26628 -0.045665 0.0055629 -0.25115 0.17366 0.31163 -0.31437 -0.21273 0.056458 0.10838 -0.19912 -0.24773 -0.32124 0.16207 -0.51018 -0.49308 -0.092865 0.14032 0.11682 0.23414 0.4265 -0.032382 -0.10108 0.2202 0.30739 -0.13885 -0.14783 0.095867 0.2362 0.16943 -0.22985 0.50347 -0.4062 0.38389 0.096451 0.10545 0.058768 -0.31322 -0.46011 0.067133 0.73838 -0.22751 -0.20949 0.51121 -0.16644 0.011413 0.1806 -1.5373 -0.44154 -0.48082 0.47891 0.13897 0.047143 -0.084347 0.20078 -0.38371 -0.32127 0.15176 0.058275 0.18345 -0.37862 -0.49222 -1.4404 0.38602 0.13639 -0.19383 -0.13996 0.38943 0.11843 -0.3479 -0.014569 0.077567 -0.0033241 0.65341 0.24073 0.28809 -0.12376 -0.21827 -0.585 -0.27524 -0.083879 0.099093 -0.52798 -0.0092214 -0.085127 0.032366 -0.0059011 0.18401 0.065922 0.36384 -0.26589 0.035072 -0.49495 -0.065523 0.010192 0.22447 0.12781 0.063172 0.059181 -0.14455 0.22211 0.28535 -0.19174 -0.057814 0.21966 -0.008788 0.12636 0.059613 -0.12398 0.14003 0.031105 -0.07235 -0.10651 0.069413 -0.040589 0.031844 -0.38454 0.060484 -0.55066 0.16427 -0.15285 -0.011435 0.15194 0.22252 -0.27829 0.23212 -0.063078 0.035761 0.3341 0.19631 0.1023 -0.10205 0.13846 0.58353 0.20263 -0.21648 0.44124 0.37661 0.59124 -0.10565 -0.11884 0.316 -0.32623 0.18237 -0.22552 -0.054534 0.53844 -0.049343 0.81294 -0.25448 -0.33138 0.015722 -0.14413 -0.43917 0.088396 -0.033844 -0.46976 0.37082 0.14345 -0.16865 0.43742 0.6686 -0.32761 -0.44373 0.026509 0.43247 0.15091 -0.079053 -0.26181 -0.30184 -0.21108 -0.2827 -0.51154 0.39716 0.20507 -0.044373 -0.10449 0.3316 -0.069507 0.4057 -0.36714 0.1001 -0.20277 -0.12775 -0.16047 0.019373 0.04482 -0.36227 -0.024495 -0.03715 -2.1451 0.015625 -0.02899 0.20035 -0.027956 -0.26946 -0.37685 -0.51119 0.10021 0.035145 0.34336 0.35352 -0.49856 0.080397 -0.081058 0.65037 0.082279 -0.20041 -0.24449 0.1999 0.09192 -0.24041 -0.16784 0.20289 0.33278 -0.038497 -0.80125 0.0093258 0.13171 -0.33147 -0.24872 0.45815 -0.063928 -0.35812 -0.38049 0.028002 -0.068217 0.052198 0.046021 0.14472 -0.29829 0.23594 0.25984 0.059825 -0.05237 -0.39475 0.38256 0.26736 -0.16579 -0.36672 0.35855 0.037718 -0.041002 -0.20377 -0.29475 0.33311 -0.58621 0.0049719 -0.28137 -0.49601 0.036092 -0.6484 -0.64102 -0.078623 -0.16444 0.1049 -0.2326 0.53624 0.37119 -0.072262 0.34343 0.14262 0.59546 0.026264 -0.76678 -0.51046
